{"learner":{"attributes":{"scikit_learn":"{\"_estimator_type\": \"classifier\"}"},"feature_names":[],"feature_types":[],"gradient_booster":{"model":{"cats":{"enc":[],"feature_segments":[],"sorted_idx":[]},"gbtree_model_param":{"num_parallel_tree":"1","num_trees":"400"},"iteration_indptr":[0,1,2,3,4,5,6,7,8,9,10,11,12,13,14,15,16,17,18,19,20,21,22,23,24,25,26,27,28,29,30,31,32,33,34,35,36,37,38,39,40,41,42,43,44,45,46,47,48,49,50,51,52,53,54,55,56,57,58,59,60,61,62,63,64,65,66,67,68,69,70,71,72,73,74,75,76,77,78,79,80,81,82,83,84,85,86,87,88,89,90,91,92,93,94,95,96,97,98,99,100,101,102,103,104,105,106,107,108,109,110,111,112,113,114,115,116,117,118,119,120,121,122,123,124,125,126,127,128,129,130,131,132,133,134,135,136,137,138,139,140,141,142,143,144,145,146,147,148,149,150,151,152,153,154,155,156,157,158,159,160,161,162,163,164,165,166,167,168,169,170,171,172,173,174,175,176,177,178,179,180,181,182,183,184,185,186,187,188,189,190,191,192,193,194,195,196,197,198,199,200,201,202,203,204,205,206,207,208,209,210,211,212,213,214,215,216,217,218,219,220,221,222,223,224,225,226,227,228,229,230,231,232,233,234,235,236,237,238,239,240,241,242,243,244,245,246,247,248,249,250,251,252,253,254,255,256,257,258,259,260,261,262,263,264,265,266,267,268,269,270,271,272,273,274,275,276,277,278,279,280,281,282,283,284,285,286,287,288,289,290,291,292,293,294,295,296,297,298,299,300,301,302,303,304,305,306,307,308,309,310,311,312,313,314,315,316,317,318,319,320,321,322,323,324,325,326,327,328,329,330,331,332,333,334,335,336,337,338,339,340,341,342,343,344,345,346,347,348,349,350,351,352,353,354,355,356,357,358,359,360,361,362,363,364,365,366,367,368,369,370,371,372,373,374,375,376,377,378,379,380,381,382,383,384,385,386,387,388,389,390,391,392,393,394,395,396,397,398,399,400],"tree_info":[0,0,0,0,0,0,0,0,0,0,0,0,0,0,0,0,0,0,0,0,0,0,0,0,0,0,0,0,0,0,0,0,0,0,0,0,0,0,0,0,0,0,0,0,0,0,0,0,0,0,0,0,0,0,0,0,0,0,0,0,0,0,0,0,0,0,0,0,0,0,0,0,0,0,0,0,0,0,0,0,0,0,0,0,0,0,0,0,0,0,0,0,0,0,0,0,0,0,0,0,0,0,0,0,0,0,0,0,0,0,0,0,0,0,0,0,0,0,0,0,0,0,0,0,0,0,0,0,0,0,0,0,0,0,0,0,0,0,0,0,0,0,0,0,0,0,0,0,0,0,0,0,0,0,0,0,0,0,0,0,0,0,0,0,0,0,0,0,0,0,0,0,0,0,0,0,0,0,0,0,0,0,0,0,0,0,0,0,0,0,0,0,0,0,0,0,0,0,0,0,0,0,0,0,0,0,0,0,0,0,0,0,0,0,0,0,0,0,0,0,0,0,0,0,0,0,0,0,0,0,0,0,0,0,0,0,0,0,0,0,0,0,0,0,0,0,0,0,0,0,0,0,0,0,0,0,0,0,0,0,0,0,0,0,0,0,0,0,0,0,0,0,0,0,0,0,0,0,0,0,0,0,0,0,0,0,0,0,0,0,0,0,0,0,0,0,0,0,0,0,0,0,0,0,0,0,0,0,0,0,0,0,0,0,0,0,0,0,0,0,0,0,0,0,0,0,0,0,0,0,0,0,0,0,0,0,0,0,0,0,0,0,0,0,0,0,0,0,0,0,0,0,0,0,0,0,0,0,0,0,0,0,0,0,0,0,0,0,0,0,0,0,0,0,0,0,0,0,0,0,0,0,0,0,0,0,0,0,0,0,0,0,0,0,0,0,0,0,0,0],"trees":[{"base_weights":[-2.8774404E-4,7.170174E-1,-1.2923359E0,2.9516795E-1,1.4415251E0,5.3301996E-1,-1.3309035E0,-4.5411196E-1,5.9329057E-1,1.2792873E0,1.6739577E0,8.841982E-1,-1.1740303E0,-1.3629631E0,1.04933955E-1,-7.0665485E-1,6.542608E-2,4.4297394E-1,1.1782908E0,9.295709E-1,1.574723E0,1.717097E0,7.72867E-1,6.087217E-1,7.866047E-2,-7.627591E-2,-1.4459747E-1,-7.1247345E-1,-1.4281961E0,7.255325E-1,-1.3935652E0,-1.2826535E0,-4.6730423E-1,1.4685993E0,-2.7582504E-2,1.0521954E0,3.233312E-1,8.9856434E-1,1.4240671E0,8.2420254E-1,1.7542301E0,1.3530215E0,1.6868066E0,1.5352154E0,1.7759427E0,3.3034027E-1,9.167298E-2,1.606132E0,1.1774822E-1,2.1498678E-2,-4.7052184E-1,-1.3145888E-1,-1.3224674E0,-9.224155E-1,-1.4913639E0,8.991936E-2,1.8686785E-1,5.1165383E-2,-1.5125065E0,-7.202069E-2,-1.0809738E-2,-5.8684807E-2,-1.6308067E-2,8.8728935E-2,3.524653E-2,-6.968362E-3,6.3549235E-2,7.616612E-2,3.397989E-2,2.66967E-3,2.2322169E-2,5.2270826E-2,1.6718874E-2,7.538836E-2,2.645876E-2,6.5811984E-2,3.0282421E-2,9.353911E-2,6.2377103E-2,6.384554E-2,9.216704E-2,9.5476426E-2,8.0241375E-2,8.3456606E-2,5.095922E-2,8.986732E-2,7.68174E-2,9.057682E-2,-2.3328638E-2,8.4445894E-2,1.1791263E-3,-6.363636E-2,1.0434469E-2,-6.0000002E-2,2.1498678E-2,-5.258098E-2,9.725603E-3,-3.3835437E-2,-6.705825E-2,-5.031531E-2,7.3684463E-3,-6.8002366E-2,-8.529686E-2,-1.24483425E-2,7.037288E-2,-4.260322E-2,-8.9773566E-2],"categories":[],"categories_nodes":[],"categories_segments":[],"categories_sizes":[],"default_left":[0,0,0,0,0,0,0,0,0,0,0,0,0,0,0,0,0,0,0,0,0,0,0,0,0,0,0,0,0,0,0,0,0,0,0,0,0,0,0,0,0,0,0,0,0,0,0,0,0,0,0,0,0,0,0,0,0,0,0,0,0,0,0,0,0,0,0,0,0,0,0,0,0,0,0,0,0,0,0,0,0,0,0,0,0,0,0,0,0,0,0,0,0,0,0,0,0,0,0,0,0,0,0,0,0,0,0],"id":0,"left_children":[1,3,5,7,9,11,13,15,17,19,21,23,25,27,29,31,33,35,37,39,41,43,45,47,-1,-1,49,51,53,55,57,59,61,63,65,67,69,71,73,75,77,79,81,83,85,87,-1,89,91,-1,93,95,97,99,101,-1,103,-1,105,-1,-1,-1,-1,-1,-1,-1,-1,-1,-1,-1,-1,-1,-1,-1,-1,-1,-1,-1,-1,-1,-1,-1,-1,-1,-1,-1,-1,-1,-1,-1,-1,-1,-1,-1,-1,-1,-1,-1,-1,-1,-1,-1,-1,-1,-1,-1,-1],"loss_changes":[1.2568745E4,2.6647896E3,3.4153223E2,1.2316515E3,1.1885791E2,6.151803E1,2.1839844E2,2.05988E2,3.4629077E2,1.9421753E2,4.9820557E1,1.5032463E1,6.1632996E0,1.957832E2,9.817568E1,1.4502606E2,6.716362E1,2.2848126E2,5.4108032E1,7.4128845E1,2.319336E1,1.0703857E1,2.8461994E1,3.008115E1,0E0,0E0,1.2501545E0,1.5034802E2,1.332627E2,4.2741802E1,1.0442211E1,5.176126E1,7.4172455E1,6.224266E0,7.033792E1,8.934625E1,8.722653E1,3.10932E1,3.1195435E1,8.2338684E1,3.4330444E0,1.068219E1,9.294678E0,2.000653E1,2.0681152E0,5.3867294E1,0E0,2.6212196E0,5.6400795E0,0E0,3.174887E0,6.578155E1,1.5926514E0,4.2373383E1,1.0319336E2,0E0,2.734333E1,0E0,4.056633E0,0E0,0E0,0E0,0E0,0E0,0E0,0E0,0E0,0E0,0E0,0E0,0E0,0E0,0E0,0E0,0E0,0E0,0E0,0E0,0E0,0E0,0E0,0E0,0E0,0E0,0E0,0E0,0E0,0E0,0E0,0E0,0E0,0E0,0E0,0E0,0E0,0E0,0E0,0E0,0E0,0E0,0E0,0E0,0E0,0E0,0E0,0E0,0E0],"parents":[2147483647,0,0,1,1,2,2,3,3,4,4,5,5,6,6,7,7,8,8,9,9,10,10,11,11,12,12,13,13,14,14,15,15,16,16,17,17,18,18,19,19,20,20,21,21,22,22,23,23,26,26,27,27,28,28,29,29,30,30,31,31,32,32,33,33,34,34,35,35,36,36,37,37,38,38,39,39,40,40,41,41,42,42,43,43,44,44,45,45,47,47,48,48,50,50,51,51,52,52,53,53,54,54,56,56,58,58],"right_children":[2,4,6,8,10,12,14,16,18,20,22,24,26,28,30,32,34,36,38,40,42,44,46,48,-1,-1,50,52,54,56,58,60,62,64,66,68,70,72,74,76,78,80,82,84,86,88,-1,90,92,-1,94,96,98,100,102,-1,104,-1,106,-1,-1,-1,-1,-1,-1,-1,-1,-1,-1,-1,-1,-1,-1,-1,-1,-1,-1,-1,-1,-1,-1,-1,-1,-1,-1,-1,-1,-1,-1,-1,-1,-1,-1,-1,-1,-1,-1,-1,-1,-1,-1,-1,-1,-1,-1,-1,-1],"split_conditions":[1.365E2,1.004E2,7.783E1,8.661E1,8.884E1,1.5472E2,1.7419E2,9.75E1,9.56E1,1.045E2,1.3017E2,9.26E1,8.8E1,5.63E1,1.5006E2,6.849E1,5.361E1,7.41E1,1.0454E2,1.9489E2,1.063E2,9.746E1,1.6172E2,7.15E1,7.866047E-2,-7.627591E-2,8.94E1,1.2393E2,1.4499E2,7.22E1,6.17E1,1.6241E2,8.679E1,7.8E1,1.9489E2,1.1547E2,1.0074E2,1.8409E2,1.3017E2,8.916E1,8.144E1,1.921E2,4.143E1,1.7259E2,1.241E2,9.241E1,9.167298E-2,7.598E1,5.361E1,2.1498678E-2,9.2E1,1.7135E2,1.4797E2,1.5927E2,1.3757E2,8.991936E-2,9.46E1,5.1165383E-2,1.5796E2,-7.202069E-2,-1.0809738E-2,-5.8684807E-2,-1.6308067E-2,8.8728935E-2,3.524653E-2,-6.968362E-3,6.3549235E-2,7.616612E-2,3.397989E-2,2.66967E-3,2.2322169E-2,5.2270826E-2,1.6718874E-2,7.538836E-2,2.645876E-2,6.5811984E-2,3.0282421E-2,9.353911E-2,6.2377103E-2,6.384554E-2,9.216704E-2,9.5476426E-2,8.0241375E-2,8.3456606E-2,5.095922E-2,8.986732E-2,7.68174E-2,9.057682E-2,-2.3328638E-2,8.4445894E-2,1.1791263E-3,-6.363636E-2,1.0434469E-2,-6.0000002E-2,2.1498678E-2,-5.258098E-2,9.725603E-3,-3.3835437E-2,-6.705825E-2,-5.031531E-2,7.3684463E-3,-6.8002366E-2,-8.529686E-2,-1.24483425E-2,7.037288E-2,-4.260322E-2,-8.9773566E-2],"split_indices":[1,2,0,1,1,1,0,2,2,2,1,2,2,2,1,1,0,2,1,0,2,1,0,2,0,0,2,0,1,2,2,0,0,1,0,1,1,0,1,0,1,0,1,0,1,0,0,0,0,0,2,1,1,0,0,0,2,0,1,0,0,0,0,0,0,0,0,0,0,0,0,0,0,0,0,0,0,0,0,0,0,0,0,0,0,0,0,0,0,0,0,0,0,0,0,0,0,0,0,0,0,0,0,0,0,0,0],"split_type":[0,0,0,0,0,0,0,0,0,0,0,0,0,0,0,0,0,0,0,0,0,0,0,0,0,0,0,0,0,0,0,0,0,0,0,0,0,0,0,0,0,0,0,0,0,0,0,0,0,0,0,0,0,0,0,0,0,0,0,0,0,0,0,0,0,0,0,0,0,0,0,0,0,0,0,0,0,0,0,0,0,0,0,0,0,0,0,0,0,0,0,0,0,0,0,0,0,0,0,0,0,0,0,0,0,0,0],"sum_hessian":[1.3559549E4,8.719306E3,4.8402437E3,5.5115664E3,3.207739E3,9.9887535E1,4.740356E3,1.5686106E3,3.9429558E3,1.8929587E3,1.3147802E3,8.324435E1,1.6643183E1,4.636874E3,1.0348185E2,1.0552854E3,5.1332513E2,3.138318E3,8.046378E2,8.687446E2,1.0242141E3,1.2538472E3,6.0932976E1,6.0813656E1,2.2430693E1,1.2047728E1,4.5954556E0,4.2370462E2,4.2131694E3,7.354094E1,2.994091E1,3.085057E2,7.467797E2,3.0990923E1,4.8233423E2,5.138741E2,2.624444E3,3.785047E2,4.2613315E2,7.7209235E2,9.665232E1,3.4831607E2,6.758981E2,3.1312402E2,9.407232E2,4.391933E1,1.7013645E1,1.9311373E1,4.1502285E1,1.5477278E0,3.0477278E0,2.176296E2,2.0607501E2,4.695012E2,3.7436685E3,2.3800013E1,4.9740925E1,1.0477278E0,2.8893183E1,2.6844434E2,4.0061375E1,1.2314547E2,6.236342E2,2.1180693E1,9.810231E0,4.4492624E2,3.740797E1,2.2556828E2,2.883058E2,8.224843E2,1.8019597E3,2.9965466E2,7.885002E1,3.8905927E2,3.7073875E1,2.3592511E2,5.3616724E2,7.638867E1,2.0263645E1,3.046331E2,4.3682976E1,1.7585123E2,5.000468E2,2.4683307E2,6.629094E1,8.576084E2,8.3114815E1,1.491819E1,2.9001143E1,1.828751E1,1.0238639E0,1.75E0,3.9752285E1,1.5E0,1.5477278E0,5.63466E1,1.61283E2,6.8454556E0,1.9922957E2,4.3541595E2,3.4085236E1,2.3269434E3,1.4167251E3,3.723978E1,1.25011425E1,9.86932E0,1.9023865E1],"tree_param":{"num_deleted":"0","num_feature":"4","num_nodes":"107","size_leaf_vector":"1"}},{"base_weights":[3.2237032E-3,6.67049E-1,-1.2631477E0,1.205817E0,-1.0801731E0,-4.1044325E-1,-1.3354355E0,1.6802744E0,6.7404944E-1,-5.049649E-1,-1.714051E0,4.8595768E-1,-1.0809261E0,3.6836407E-1,-1.3711531E0,1.7812425E0,5.3121567E-1,1.6279508E0,5.700225E-1,1.2474984E0,-6.53055E-1,1.0511451E-1,-1.7372644E0,-1.2924606E-1,6.998855E-1,-2.81746E-1,-1.2298102E0,1.7379575E0,-1.4062529E0,-1.2961316E0,-9.39524E-2,1.8730066E0,1.4627008E0,2.6893862E-2,1.8535817E0,1.8064493E0,1.232662E0,4.8598713E-1,1.8157549E0,1.6886798E0,3.279316E-1,-7.6527673E-1,1.598295E0,9.4100165E-1,-6.749098E-1,-1.7450486E0,6.528807E-2,2.6920387E-1,-9.212569E-1,1.024373E0,5.1425464E-2,2.0339143E-1,-1.2245191E0,-6.0181195E-1,-1.351044E0,8.98941E-2,8.551237E-1,-1.0080881E0,-9.186941E-2,-1.3249846E0,1.3834128E0,9.4365E-2,7.2669946E-2,6.6070154E-2,8.198861E-2,9.113963E-2,-4.093956E-2,5.935377E-2,9.661817E-2,9.395951E-2,6.83539E-2,8.861703E-2,4.1442003E-2,1.7354546E-2,6.6779986E-2,8.1518605E-2,9.6090324E-2,8.5854545E-2,1.969484E-2,7.05532E-2,-2.3827428E-2,2.9317388E-2,-4.8602685E-2,8.8073656E-2,1.2090117E-2,5.874777E-2,8.620958E-3,8.2350625E-3,-4.8169605E-2,3.2417413E-2,-8.7537035E-2,-1.9213175E-2,6.999745E-2,2.864544E-3,-5.458454E-2,7.537208E-2,4.2885907E-2,-2.0693257E-2,7.126575E-2,-4.9282283E-2,2.2202805E-2,-2.835399E-2,-8.1712455E-2,-6.4882815E-2,4.921879E-3,-7.682698E-2,-4.374972E-2,6.2108576E-2,-8.985013E-3,-5.899317E-2,-1.891793E-2,-6.908279E-2,-3.9036628E-2,8.4472194E-2,-1.2855457E-2],"categories":[],"categories_nodes":[],"categories_segments":[],"categories_sizes":[],"default_left":[0,0,0,0,0,0,0,0,0,0,0,0,0,0,0,0,0,0,0,0,0,0,0,0,0,0,0,0,0,0,0,0,0,0,0,0,0,0,0,0,0,0,0,0,0,0,0,0,0,0,0,0,0,0,0,0,0,0,0,0,0,0,0,0,0,0,0,0,0,0,0,0,0,0,0,0,0,0,0,0,0,0,0,0,0,0,0,0,0,0,0,0,0,0,0,0,0,0,0,0,0,0,0,0,0,0,0,0,0,0,0,0,0,0,0],"id":1,"left_children":[1,3,5,7,9,11,13,15,17,19,21,23,25,27,29,31,33,35,37,39,41,43,45,47,49,51,53,55,57,59,-1,61,63,65,67,69,71,73,75,77,79,81,83,85,87,89,-1,91,93,95,97,99,101,103,105,-1,107,109,-1,111,113,-1,-1,-1,-1,-1,-1,-1,-1,-1,-1,-1,-1,-1,-1,-1,-1,-1,-1,-1,-1,-1,-1,-1,-1,-1,-1,-1,-1,-1,-1,-1,-1,-1,-1,-1,-1,-1,-1,-1,-1,-1,-1,-1,-1,-1,-1,-1,-1,-1,-1,-1,-1,-1,-1],"loss_changes":[1.143445E4,8.40189E3,2.8779834E2,1.719875E3,7.6618945E2,2.2111284E2,2.629087E2,4.1720703E2,3.1840234E2,2.8741537E2,4.2429688E1,2.0850666E1,2.4673706E1,2.1954846E2,1.584961E2,9.40918E1,1.9504895E2,2.0062195E1,3.0303503E2,3.449553E1,2.586602E2,9.46852E0,2.5678955E1,1.3358208E1,2.460772E1,1.594595E1,1.26596985E1,1.1534119E0,4.9219055E0,2.8659326E2,0E0,1.2660156E1,1.6483887E1,3.2467578E2,1.9463806E0,4.317627E0,2.0633652E1,3.2064142E2,4.664917E-1,1.4624481E0,2.616084E1,2.720174E2,1.0354477E1,1.0484557E0,1.9971867E0,1.4564941E1,0E0,2.1532272E1,2.419258E0,4.9911804E0,2.6249336E1,7.1672683E0,2.252554E0,1.495877E1,1.1682587E1,0E0,2.28194E0,2.0124474E0,0E0,1.1133008E2,2.037941E1,0E0,0E0,0E0,0E0,0E0,0E0,0E0,0E0,0E0,0E0,0E0,0E0,0E0,0E0,0E0,0E0,0E0,0E0,0E0,0E0,0E0,0E0,0E0,0E0,0E0,0E0,0E0,0E0,0E0,0E0,0E0,0E0,0E0,0E0,0E0,0E0,0E0,0E0,0E0,0E0,0E0,0E0,0E0,0E0,0E0,0E0,0E0,0E0,0E0,0E0,0E0,0E0,0E0,0E0],"parents":[2147483647,0,0,1,1,2,2,3,3,4,4,5,5,6,6,7,7,8,8,9,9,10,10,11,11,12,12,13,13,14,14,15,15,16,16,17,17,18,18,19,19,20,20,21,21,22,22,23,23,24,24,25,25,26,26,27,27,28,28,29,29,31,31,32,32,33,33,34,34,35,35,36,36,37,37,38,38,39,39,40,40,41,41,42,42,43,43,44,44,45,45,47,47,48,48,49,49,50,50,51,51,52,52,53,53,54,54,56,56,57,57,59,59,60,60],"right_children":[2,4,6,8,10,12,14,16,18,20,22,24,26,28,30,32,34,36,38,40,42,44,46,48,50,52,54,56,58,60,-1,62,64,66,68,70,72,74,76,78,80,82,84,86,88,90,-1,92,94,96,98,100,102,104,106,-1,108,110,-1,112,114,-1,-1,-1,-1,-1,-1,-1,-1,-1,-1,-1,-1,-1,-1,-1,-1,-1,-1,-1,-1,-1,-1,-1,-1,-1,-1,-1,-1,-1,-1,-1,-1,-1,-1,-1,-1,-1,-1,-1,-1,-1,-1,-1,-1,-1,-1,-1,-1,-1,-1,-1,-1,-1,-1],"split_conditions":[1.3927E2,3.2E1,-4.6E1,1.7E1,4.1E1,1.2185E2,7.885E1,1.3017E2,4.797E1,4.344E1,3.815E1,1.7576E2,1.7084E2,5.1E1,5.5E1,1.4E1,1.5739E2,4.109E1,2.1259E2,9.303E1,2.1593E2,9.746E1,2.2592E2,1.7186E2,1.1805E2,1.4543E2,1.2441E2,1.5523E2,1.5304E2,1.7341E2,-9.39524E-2,1.275E2,9.796E1,9.701E1,1.6406E2,2.9E1,7.858E1,1.1013E2,2.1972E2,4E1,3.166E1,4.87E1,3.9E1,4.6E1,3.166E1,4.623E1,6.528807E-2,1.6891E2,-5.9E1,-6.3E1,1.9473E2,1.5574E2,1.4824E2,1.9259E2,1.3543E2,8.98941E-2,7.502E1,1.4931E2,-9.186941E-2,1.7651E2,5E1,9.4365E-2,7.2669946E-2,6.6070154E-2,8.198861E-2,9.113963E-2,-4.093956E-2,5.935377E-2,9.661817E-2,9.395951E-2,6.83539E-2,8.861703E-2,4.1442003E-2,1.7354546E-2,6.6779986E-2,8.1518605E-2,9.6090324E-2,8.5854545E-2,1.969484E-2,7.05532E-2,-2.3827428E-2,2.9317388E-2,-4.8602685E-2,8.8073656E-2,1.2090117E-2,5.874777E-2,8.620958E-3,8.2350625E-3,-4.8169605E-2,3.2417413E-2,-8.7537035E-2,-1.9213175E-2,6.999745E-2,2.864544E-3,-5.458454E-2,7.537208E-2,4.2885907E-2,-2.0693257E-2,7.126575E-2,-4.9282283E-2,2.2202805E-2,-2.835399E-2,-8.1712455E-2,-6.4882815E-2,4.921879E-3,-7.682698E-2,-4.374972E-2,6.2108576E-2,-8.985013E-3,-5.899317E-2,-1.891793E-2,-6.908279E-2,-3.9036628E-2,8.4472194E-2,-1.2855457E-2],"split_indices":[1,3,3,3,3,0,0,1,0,0,0,1,1,3,3,3,0,0,0,1,0,1,0,1,0,0,0,1,1,0,0,1,1,0,0,3,1,1,0,3,0,1,3,3,0,1,0,1,3,3,1,1,0,1,0,0,0,1,0,1,3,0,0,0,0,0,0,0,0,0,0,0,0,0,0,0,0,0,0,0,0,0,0,0,0,0,0,0,0,0,0,0,0,0,0,0,0,0,0,0,0,0,0,0,0,0,0,0,0,0,0,0,0,0,0],"split_type":[0,0,0,0,0,0,0,0,0,0,0,0,0,0,0,0,0,0,0,0,0,0,0,0,0,0,0,0,0,0,0,0,0,0,0,0,0,0,0,0,0,0,0,0,0,0,0,0,0,0,0,0,0,0,0,0,0,0,0,0,0,0,0,0,0,0,0,0,0,0,0,0,0,0,0,0,0,0,0,0,0,0,0,0,0,0,0,0,0,0,0,0,0,0,0,0,0,0,0,0,0,0,0,0,0,0,0,0,0,0,0,0,0,0,0],"sum_hessian":[1.3599923E4,8.923004E3,4.6769185E3,6.8202446E3,2.1027595E3,3.6602112E2,4.3108975E3,3.6032065E3,3.217038E3,1.1033386E3,9.994209E2,1.567413E2,2.0927983E2,8.832488E1,4.2225728E3,3.31166E3,2.915467E2,3.148933E2,2.9021448E3,8.539308E1,1.01794556E3,1.254795E1,9.868729E2,4.0543633E1,1.1619766E2,3.3319557E1,1.7596027E2,4.9862915E1,3.8461967E1,3.6822205E3,5.403522E2,2.5672249E3,7.44435E2,2.1179353E2,7.975314E1,2.1447435E2,1.0041896E2,2.7200444E3,1.8210036E2,5.7141747E1,2.8251337E1,9.702425E2,4.7703045E1,5.9574604E0,6.5904894E0,9.8478033E2,2.0925887E0,2.741275E1,1.3130882E1,7.705824E1,3.9139427E1,2.2516932E1,1.0802626E1,2.9437319E1,1.4652295E2,4.5722878E1,4.1400404E0,2.1731016E1,1.6730953E1,3.6434934E3,3.872713E1,2.4792734E3,8.795151E1,4.187484E2,3.2568658E2,6.7434364E1,1.4435918E2,1.01289015E1,6.9624245E1,1.8119865E2,3.3275692E1,4.1529232E1,5.8889725E1,2.339059E3,3.8098523E2,7.2223656E1,1.098767E2,5.5595665E1,1.5460811E0,1.1719067E1,1.653227E1,1.2849333E2,8.417492E2,4.231433E1,5.388715E0,4.1618714E0,1.795589E0,1.7950824E0,4.795407E0,2.0686054E0,9.8271173E2,1.779122E1,9.6215315E0,2.046238E0,1.1084644E1,1.7701918E1,5.9356323E1,2.9759604E1,9.379822E0,3.269247E0,1.9247684E1,5.062898E0,5.7397275E0,1.4337189E1,1.510013E1,1.0383524E2,4.2687714E1,2.8672523E0,1.272788E0,1.6387337E1,5.343678E0,3.2984937E3,3.449996E2,3.2613438E1,6.1136904E0],"tree_param":{"num_deleted":"0","num_feature":"4","num_nodes":"115","size_leaf_vector":"1"}},{"base_weights":[2.310281E-3,2.6774952E-1,-1.4856917E0,-7.5622594E-1,6.9391E-1,-9.192198E-1,-1.7047571E0,-8.797963E-1,1.6145176E0,3.8190007E-1,1.1942906E0,-1.1631069E0,3.394072E-1,-1.4138299E0,-1.7919749E0,1.4903939E0,-1.0094926E0,7.2953236E-1,1.7296507E0,7.534952E-1,-4.041879E-1,1.5719819E0,1.0219012E0,2.3981337E-1,-1.5038123E0,-9.106766E-2,1.5158026E0,-5.902976E-1,-1.7175478E0,-1.3644578E-1,-1.8031213E0,1.6718649E0,5.0453013E-1,-8.558747E-1,-1.4073607E0,-8.1643254E-1,1.2029928E0,1.1586386E0,9.021481E-2,4.538563E-2,9.7142243E-1,1.0957936E0,-7.698071E-1,9.020271E-2,1.4626865E0,5.7160175E-1,1.509042E0,-1.178775E0,4.7584766E-1,2.6428378E-1,-1.613979E0,1.162872E0,-1.1469524E0,5.568798E-1,8.317762E-2,-7.5879914E-1,9.47325E-1,7.180845E-2,-1.7473637E0,-5.9415456E-2,2.5020933E-1,-1.8099116E0,6.520418E-1,1.6442195E-3,8.418083E-2,-7.0157416E-2,3.977985E-2,-1.5215523E-2,-4.7777753E-2,-7.4483655E-2,-4.121624E-2,-5.601122E-2,-2.130936E-2,3.1302832E-2,7.431837E-2,1.4934102E-2,8.520702E-2,-1.0510841E-2,8.89931E-2,-1.7022174E-2,5.2056473E-2,-3.8838193E-2,7.073175E-2,5.6940045E-2,-4.5364123E-2,8.557624E-2,6.511717E-2,1.3318582E-2,3.8355418E-2,7.19956E-2,8.999466E-2,5.0641067E-2,-7.1846984E-2,1.50023615E-2,6.3693434E-2,-6.5213725E-2,3.799016E-2,-8.3125435E-2,1.8983953E-2,7.2076045E-2,-6.9937496E-3,-7.151046E-2,2.0853914E-2,5.4333575E-2,-1.8295396E-2,2.594741E-2,-5.062462E-2,7.3549636E-2,-5.8388084E-2,3.434145E-2,-2.8877432E-2,-3.9540228E-2,-8.928234E-2,3.783188E-2,-3.464976E-2,-9.073148E-2,-3.666221E-2,-9.09108E-3,5.6857824E-2],"categories":[],"categories_nodes":[],"categories_segments":[],"categories_sizes":[],"default_left":[0,0,0,0,0,0,0,0,0,0,0,0,0,0,0,0,0,0,0,0,0,0,0,0,0,0,0,0,0,0,0,0,0,0,0,0,0,0,0,0,0,0,0,0,0,0,0,0,0,0,0,0,0,0,0,0,0,0,0,0,0,0,0,0,0,0,0,0,0,0,0,0,0,0,0,0,0,0,0,0,0,0,0,0,0,0,0,0,0,0,0,0,0,0,0,0,0,0,0,0,0,0,0,0,0,0,0,0,0,0,0,0,0,0,0,0,0,0,0],"id":2,"left_children":[1,3,5,7,9,11,13,15,17,19,21,23,25,27,29,31,33,35,37,39,41,43,45,47,49,51,53,55,57,59,61,63,65,67,69,71,73,75,-1,77,79,81,83,-1,85,87,89,91,93,95,97,99,101,103,-1,105,107,109,111,-1,113,115,117,-1,-1,-1,-1,-1,-1,-1,-1,-1,-1,-1,-1,-1,-1,-1,-1,-1,-1,-1,-1,-1,-1,-1,-1,-1,-1,-1,-1,-1,-1,-1,-1,-1,-1,-1,-1,-1,-1,-1,-1,-1,-1,-1,-1,-1,-1,-1,-1,-1,-1,-1,-1,-1,-1,-1,-1],"loss_changes":[5.3458594E3,5.01267E3,2.5269092E2,9.903971E2,1.2658499E3,1.7645535E2,3.4927734E1,9.880542E2,1.5814819E1,1.4600405E3,2.011875E2,2.3011877E2,4.7676357E1,8.53418E1,2.0644775E1,2.9016602E1,1.8480542E2,1.6370098E1,4.1995544E0,5.236422E2,8.808878E2,2.2072266E1,4.6887402E2,3.2299374E1,7.57879E1,9.357582E1,2.6446686E0,2.5215054E1,1.3554382E1,3.8166242E0,1.992627E1,2.6513062E0,1.63187E1,1.20565796E2,3.9381714E1,1.7753983E-1,1.7667713E0,8.805483E0,0E0,3.548984E2,2.376499E2,1.8910815E2,3.3971832E2,0E0,2.4407959E1,6.6296234E1,1.8078125E1,9.268547E0,1.1118807E1,1.9296825E1,3.5881958E1,1.1942764E1,1.75751E1,2.7776494E0,0E0,2.8326374E1,1.2552807E1,2.4278533E0,7.655884E0,0E0,3.94125E0,4.366455E0,1.7586976E0,0E0,0E0,0E0,0E0,0E0,0E0,0E0,0E0,0E0,0E0,0E0,0E0,0E0,0E0,0E0,0E0,0E0,0E0,0E0,0E0,0E0,0E0,0E0,0E0,0E0,0E0,0E0,0E0,0E0,0E0,0E0,0E0,0E0,0E0,0E0,0E0,0E0,0E0,0E0,0E0,0E0,0E0,0E0,0E0,0E0,0E0,0E0,0E0,0E0,0E0,0E0,0E0,0E0,0E0,0E0,0E0],"parents":[2147483647,0,0,1,1,2,2,3,3,4,4,5,5,6,6,7,7,8,8,9,9,10,10,11,11,12,12,13,13,14,14,15,15,16,16,17,17,18,18,19,19,20,20,21,21,22,22,23,23,24,24,25,25,26,26,27,27,28,28,29,29,30,30,31,31,32,32,33,33,34,34,35,35,36,36,37,37,39,39,40,40,41,41,42,42,44,44,45,45,46,46,47,47,48,48,49,49,50,50,51,51,52,52,53,53,55,55,56,56,57,57,58,58,60,60,61,61,62,62],"right_children":[2,4,6,8,10,12,14,16,18,20,22,24,26,28,30,32,34,36,38,40,42,44,46,48,50,52,54,56,58,60,62,64,66,68,70,72,74,76,-1,78,80,82,84,-1,86,88,90,92,94,96,98,100,102,104,-1,106,108,110,112,-1,114,116,118,-1,-1,-1,-1,-1,-1,-1,-1,-1,-1,-1,-1,-1,-1,-1,-1,-1,-1,-1,-1,-1,-1,-1,-1,-1,-1,-1,-1,-1,-1,-1,-1,-1,-1,-1,-1,-1,-1,-1,-1,-1,-1,-1,-1,-1,-1,-1,-1,-1,-1,-1,-1,-1,-1,-1,-1],"split_conditions":[3.7E1,-1E0,4.3E1,1.6499E2,1.004E2,1.014E2,7.59E1,9.099E1,1.6842E2,2.3E1,9.318E1,7.47E1,1.8523E2,5.1E1,3.815E1,8.753E1,1.42E2,-1.3E1,-1.5E1,6E0,7.57E1,4.987E1,1.5739E2,5.88E1,4.344E1,7.783E1,1.026E2,1.8041E2,7.09E1,9.43E1,2.1972E2,-4.1E1,-2.1E1,-4.6E1,1.02E2,1.6661E2,9.63E1,1.7596E2,9.021481E-2,1.6499E2,6.84E1,6.07E1,4.344E1,9.020271E-2,1.3E1,1.036E2,2.0975E2,8.405E1,1.7419E2,9.1E1,2.1593E2,4.1E1,1.071E2,3.9E1,8.317762E-2,7.885E1,7.22E1,7.15E1,4.09E1,-5.9415456E-2,4.6E1,1.063E2,2.2592E2,1.6442195E-3,8.418083E-2,-7.0157416E-2,3.977985E-2,-1.5215523E-2,-4.7777753E-2,-7.4483655E-2,-4.121624E-2,-5.601122E-2,-2.130936E-2,3.1302832E-2,7.431837E-2,1.4934102E-2,8.520702E-2,-1.0510841E-2,8.89931E-2,-1.7022174E-2,5.2056473E-2,-3.8838193E-2,7.073175E-2,5.6940045E-2,-4.5364123E-2,8.557624E-2,6.511717E-2,1.3318582E-2,3.8355418E-2,7.19956E-2,8.999466E-2,5.0641067E-2,-7.1846984E-2,1.50023615E-2,6.3693434E-2,-6.5213725E-2,3.799016E-2,-8.3125435E-2,1.8983953E-2,7.2076045E-2,-6.9937496E-3,-7.151046E-2,2.0853914E-2,5.4333575E-2,-1.8295396E-2,2.594741E-2,-5.062462E-2,7.3549636E-2,-5.8388084E-2,3.434145E-2,-2.8877432E-2,-3.9540228E-2,-8.928234E-2,3.783188E-2,-3.464976E-2,-9.073148E-2,-3.666221E-2,-9.09108E-3,5.6857824E-2],"split_indices":[3,3,3,0,2,2,2,0,0,3,0,2,0,3,0,0,0,3,3,3,2,0,0,2,0,0,2,0,0,2,0,3,3,3,2,0,2,0,0,0,2,2,0,0,3,2,0,0,0,2,0,3,2,3,0,0,2,2,2,0,3,2,0,0,0,0,0,0,0,0,0,0,0,0,0,0,0,0,0,0,0,0,0,0,0,0,0,0,0,0,0,0,0,0,0,0,0,0,0,0,0,0,0,0,0,0,0,0,0,0,0,0,0,0,0,0,0,0,0],"split_type":[0,0,0,0,0,0,0,0,0,0,0,0,0,0,0,0,0,0,0,0,0,0,0,0,0,0,0,0,0,0,0,0,0,0,0,0,0,0,0,0,0,0,0,0,0,0,0,0,0,0,0,0,0,0,0,0,0,0,0,0,0,0,0,0,0,0,0,0,0,0,0,0,0,0,0,0,0,0,0,0,0,0,0,0,0,0,0,0,0,0,0,0,0,0,0,0,0,0,0,0,0,0,0,0,0,0,0,0,0,0,0,0,0,0,0,0,0,0,0],"sum_hessian":[1.3532702E4,1.1484792E4,2.04791E3,3.37488E3,8.109912E3,5.725565E2,1.4753535E3,3.2082832E3,1.665967E2,4.9962734E3,3.113639E3,4.7968307E2,9.2873436E1,3.4425467E2,1.1310988E3,1.6590422E2,3.042379E3,2.0023113E1,1.4657358E2,3.3925889E3,1.6036843E3,9.732365E2,2.1404023E3,9.378821E1,3.8589487E2,6.8668396E1,2.4205034E1,9.354652E1,2.5070815E2,7.6531253E0,1.1234457E3,1.395255E2,2.637872E1,2.1971892E3,8.451897E2,4.524644E0,1.549847E1,1.8855726E1,1.2771785E2,7.986732E2,2.5939158E3,3.1389764E2,1.2897867E3,3.066357E2,6.666008E2,1.1133892E3,1.0270131E3,1.280926E1,8.097895E1,2.2552025E1,3.6334286E2,3.134391E1,3.732449E1,3.8682761E0,2.0336758E1,8.476409E1,8.782424E0,4.085977E0,2.4662218E2,1.4997833E0,6.1533422E0,1.1206091E3,2.8364978E0,1.0203421E0,1.3850516E2,2.9861975E0,2.339252E1,3.369251E2,1.8602642E3,7.392658E2,1.0592389E2,1.4923438E0,3.0323E0,6.16208E0,9.3363905E0,7.919137E0,1.0936589E1,6.968589E2,1.0181435E2,1.3067967E2,2.463236E3,4.5462128E1,2.6843552E2,8.617078E1,1.203616E3,2.5742526E2,4.0917554E2,4.3563177E2,6.7775745E2,8.345955E2,1.9241759E2,1.0418335E0,1.17674265E1,6.74877E1,1.3491248E1,5.0221996E0,1.7529825E1,3.548707E2,8.472167E0,2.5733221E1,5.6106896E0,3.1673723E1,5.650765E0,2.3445973E0,1.5236785E0,1.386853E1,7.089556E1,7.283619E0,1.4988047E0,2.068833E0,2.017144E0,1.0323783E1,2.3629839E2,4.1323757E0,2.0209665E0,1.1150377E3,5.571453E0,1.2731978E0,1.5632999E0],"tree_param":{"num_deleted":"0","num_feature":"4","num_nodes":"119","size_leaf_vector":"1"}},{"base_weights":[3.166E-3,6.211921E-1,-1.1669301E0,1.1439271E0,-9.1166323E-1,-4.3901664E-1,-1.2504685E0,1.5633055E0,6.490124E-1,-3.8454545E-1,-1.5668457E0,2.8164944E-1,-1.0488706E0,2.9558134E-3,-1.296849E0,1.6581706E0,4.9524692E-1,1.5461268E0,5.586663E-1,1.1301252E0,-5.1771545E-1,1.3616244E-1,-1.5881636E0,-5.4405504E-1,6.752306E-1,-4.6365795E-1,-1.1452168E0,1.2713128E0,-1.3691679E0,-7.3901933E-1,-1.3556316E0,1.7515707E0,1.3327607E0,4.7690827E-2,8.8325426E-2,1.6886171E0,1.2398541E0,1.4004104E0,4.486133E-1,1.5720181E0,2.641833E-1,-6.274141E-1,1.47854E0,6.156832E-1,-1.0191835E0,-1.61544E0,-2.5968644E-1,-7.8322315E-1,1.3524422E-1,9.00091E-1,1.6682836E-1,-9.4333243E-1,4.8520797E-1,-7.3132694E-1,-1.28355E0,1.6559173E0,5.47836E-1,-4.6926412E-1,-1.5647489E0,-8.918554E-1,6.494505E-1,-1.304404E0,-8.553605E-2,8.829626E-2,6.636663E-2,6.227692E-2,8.14191E-2,8.701673E-2,-3.6218997E-2,8.6736344E-2,5.8168538E-2,8.038003E-2,4.8940167E-2,8.284163E-2,5.3236693E-2,1.4384682E-2,6.280838E-2,8.544427E-2,5.200681E-2,6.82804E-2,-3.3502147E-2,2.597903E-2,-4.265939E-2,7.727547E-2,4.362393E-3,5.1004946E-2,-7.7572204E-3,-9.646438E-3,-6.528171E-2,-7.5010195E-2,-8.604794E-2,5.4182637E-2,-5.6219287E-2,-1.5445908E-2,-4.984514E-2,3.550675E-2,-2.2479499E-2,5.645279E-2,1.9498896E-2,-4.0433284E-2,2.982146E-2,6.8862545E-3,-6.0721703E-2,3.94187E-2,-5.8849167E-2,-1.6799094E-2,-8.435837E-2,-7.244414E-2,-4.932436E-2,3.624253E-2,8.61264E-2,5.6420267E-2,1.2313843E-2,-9.595693E-3,-6.429639E-2,-3.984911E-2,-8.2435295E-2,-2.8724466E-2,-7.634875E-2,8.3233476E-2,-4.6996977E-2,-6.580263E-2,6.9546364E-2],"categories":[],"categories_nodes":[],"categories_segments":[],"categories_sizes":[],"default_left":[0,0,0,0,0,0,0,0,0,0,0,0,0,0,0,0,0,0,0,0,0,0,0,0,0,0,0,0,0,0,0,0,0,0,0,0,0,0,0,0,0,0,0,0,0,0,0,0,0,0,0,0,0,0,0,0,0,0,0,0,0,0,0,0,0,0,0,0,0,0,0,0,0,0,0,0,0,0,0,0,0,0,0,0,0,0,0,0,0,0,0,0,0,0,0,0,0,0,0,0,0,0,0,0,0,0,0,0,0,0,0,0,0,0,0,0,0,0,0,0,0,0,0],"id":3,"left_children":[1,3,5,7,9,11,13,15,17,19,21,23,25,27,29,31,33,35,37,39,41,43,45,47,49,51,53,55,57,59,61,63,65,67,-1,69,71,73,75,77,79,81,83,85,87,89,91,93,95,97,99,101,103,105,107,109,111,113,115,117,119,121,-1,-1,-1,-1,-1,-1,-1,-1,-1,-1,-1,-1,-1,-1,-1,-1,-1,-1,-1,-1,-1,-1,-1,-1,-1,-1,-1,-1,-1,-1,-1,-1,-1,-1,-1,-1,-1,-1,-1,-1,-1,-1,-1,-1,-1,-1,-1,-1,-1,-1,-1,-1,-1,-1,-1,-1,-1,-1,-1,-1,-1],"loss_changes":[9.7427E3,7.06516E3,2.8260742E2,1.3635859E3,7.738556E2,2.1166266E2,2.4280762E2,3.5969824E2,2.4370068E2,2.5151352E2,3.6501465E1,7.2261185E1,1.4168152E1,2.6284387E2,1.3106445E2,9.6975586E1,1.658717E2,9.92981E0,2.5346533E2,3.8174942E1,2.5148453E2,7.983386E0,3.5351807E1,1.179771E1,1.7027481E1,1.7996084E1,1.1838745E1,2.0930473E1,1.2034515E1,8.252367E1,6.402539E1,1.3097168E1,1.6868774E1,2.8453177E2,0E0,2.468872E0,7.1857147E0,2.5494324E1,3.1506042E2,3.0687714E0,3.721433E1,2.814856E2,5.4460297E0,3.2776327E0,7.5897074E-1,9.178223E0,2.5672966E1,5.101261E0,6.9064646E0,1.1701324E1,2.0306911E1,7.768009E0,7.7807527E0,2.1436909E1,6.7206726E0,1.8986816E0,4.7528267E0,3.0104656E0,2.499939E0,6.932431E1,6.428358E1,1.0190332E2,0E0,0E0,0E0,0E0,0E0,0E0,0E0,0E0,0E0,0E0,0E0,0E0,0E0,0E0,0E0,0E0,0E0,0E0,0E0,0E0,0E0,0E0,0E0,0E0,0E0,0E0,0E0,0E0,0E0,0E0,0E0,0E0,0E0,0E0,0E0,0E0,0E0,0E0,0E0,0E0,0E0,0E0,0E0,0E0,0E0,0E0,0E0,0E0,0E0,0E0,0E0,0E0,0E0,0E0,0E0,0E0,0E0,0E0,0E0,0E0,0E0],"parents":[2147483647,0,0,1,1,2,2,3,3,4,4,5,5,6,6,7,7,8,8,9,9,10,10,11,11,12,12,13,13,14,14,15,15,16,16,17,17,18,18,19,19,20,20,21,21,22,22,23,23,24,24,25,25,26,26,27,27,28,28,29,29,30,30,31,31,32,32,33,33,35,35,36,36,37,37,38,38,39,39,40,40,41,41,42,42,43,43,44,44,45,45,46,46,47,47,48,48,49,49,50,50,51,51,52,52,53,53,54,54,55,55,56,56,57,57,58,58,59,59,60,60,61,61],"right_children":[2,4,6,8,10,12,14,16,18,20,22,24,26,28,30,32,34,36,38,40,42,44,46,48,50,52,54,56,58,60,62,64,66,68,-1,70,72,74,76,78,80,82,84,86,88,90,92,94,96,98,100,102,104,106,108,110,112,114,116,118,120,122,-1,-1,-1,-1,-1,-1,-1,-1,-1,-1,-1,-1,-1,-1,-1,-1,-1,-1,-1,-1,-1,-1,-1,-1,-1,-1,-1,-1,-1,-1,-1,-1,-1,-1,-1,-1,-1,-1,-1,-1,-1,-1,-1,-1,-1,-1,-1,-1,-1,-1,-1,-1,-1,-1,-1,-1,-1,-1,-1,-1,-1],"split_conditions":[1.3927E2,3.1E1,-4E1,1.7E1,4.1E1,1.2185E2,8.594E1,1.3017E2,4.797E1,4.344E1,3.815E1,1.7464E2,1.2441E2,4.8E1,1.4499E2,1.4E1,1.5978E2,4.109E1,4.324E1,9.21E1,2.1593E2,1.0639E2,2.0711E2,1.1444E2,1.1805E2,1.9473E2,1.7084E2,7.974E1,5.7E1,1.6661E2,5.5E1,1.275E2,1.0861E2,9.524E1,8.8325426E-2,2.9E1,7.858E1,3.7E1,1.0912E2,8.427E1,3.166E1,4.999E1,4E1,3.5E1,1.1216E2,4.9E1,9.458E1,-5E1,-4.8E1,-4.8E1,1.8528E2,1.7753E2,2.0095E2,1.4824E2,1.8928E2,-1.6E1,1.4763E2,7.689E1,1.4289E2,8E0,5.1E1,1.7505E2,-8.553605E-2,8.829626E-2,6.636663E-2,6.227692E-2,8.14191E-2,8.701673E-2,-3.6218997E-2,8.6736344E-2,5.8168538E-2,8.038003E-2,4.8940167E-2,8.284163E-2,5.3236693E-2,1.4384682E-2,6.280838E-2,8.544427E-2,5.200681E-2,6.82804E-2,-3.3502147E-2,2.597903E-2,-4.265939E-2,7.727547E-2,4.362393E-3,5.1004946E-2,-7.7572204E-3,-9.646438E-3,-6.528171E-2,-7.5010195E-2,-8.604794E-2,5.4182637E-2,-5.6219287E-2,-1.5445908E-2,-4.984514E-2,3.550675E-2,-2.2479499E-2,5.645279E-2,1.9498896E-2,-4.0433284E-2,2.982146E-2,6.8862545E-3,-6.0721703E-2,3.94187E-2,-5.8849167E-2,-1.6799094E-2,-8.435837E-2,-7.244414E-2,-4.932436E-2,3.624253E-2,8.61264E-2,5.6420267E-2,1.2313843E-2,-9.595693E-3,-6.429639E-2,-3.984911E-2,-8.2435295E-2,-2.8724466E-2,-7.634875E-2,8.3233476E-2,-4.6996977E-2,-6.580263E-2,6.9546364E-2],"split_indices":[1,3,3,3,3,0,0,1,0,0,0,1,0,3,1,3,0,0,1,1,0,1,0,0,0,1,1,0,3,0,3,1,1,0,0,3,1,1,1,1,0,1,3,0,1,3,1,3,3,3,1,1,1,0,1,3,1,0,1,3,3,0,0,0,0,0,0,0,0,0,0,0,0,0,0,0,0,0,0,0,0,0,0,0,0,0,0,0,0,0,0,0,0,0,0,0,0,0,0,0,0,0,0,0,0,0,0,0,0,0,0,0,0,0,0,0,0,0,0,0,0,0,0],"split_type":[0,0,0,0,0,0,0,0,0,0,0,0,0,0,0,0,0,0,0,0,0,0,0,0,0,0,0,0,0,0,0,0,0,0,0,0,0,0,0,0,0,0,0,0,0,0,0,0,0,0,0,0,0,0,0,0,0,0,0,0,0,0,0,0,0,0,0,0,0,0,0,0,0,0,0,0,0,0,0,0,0,0,0,0,0,0,0,0,0,0,0,0,0,0,0,0,0,0,0,0,0,0,0,0,0,0,0,0,0,0,0,0,0,0,0,0,0,0,0,0,0,0,0],"sum_hessian":[1.3470584E4,8.815072E3,4.6555117E3,6.5735957E3,2.2414768E3,4.7992554E2,4.175586E3,3.557175E3,3.0164207E3,1.2430142E3,9.9846265E2,2.2022418E2,2.5970135E2,1.4902977E2,4.0265564E3,3.2664924E3,2.9068253E2,2.745083E2,2.7419124E3,9.984899E1,1.1431652E3,1.2277485E1,9.861851E2,7.096419E1,1.4925998E2,3.7533447E1,2.2216791E2,7.7481384E1,7.1548386E1,3.8515112E2,3.6414053E3,2.5346165E3,7.318761E2,2.1576022E2,7.492231E1,1.8426666E2,9.024164E1,3.1568213E2,2.4262302E3,6.5572E1,3.4276993E1,1.084268E3,5.8897247E1,9.006487E0,3.2709985E0,9.6613245E2,2.0052729E1,5.237203E1,1.8592163E1,1.0295415E2,4.630584E1,2.4934362E1,1.2599086E1,5.7228443E1,1.6493947E2,4.974684E1,2.7734537E1,1.338069E1,5.8167698E1,3.4728168E2,3.7869423E1,3.1863894E3,4.5501575E2,2.4486035E3,8.601292E1,5.6916003E2,1.6271611E2,6.719395E1,1.4856628E2,1.6727905E2,1.6987614E1,3.532314E1,5.49185E1,1.7673727E2,1.3894484E2,2.0242239E3,4.020065E2,5.0391922E1,1.5180081E1,1.551891E1,1.8758081E1,1.7811118E2,9.061568E2,5.608669E1,2.8105597E0,5.6951423E0,3.3113449E0,1.2728966E0,1.9981017E0,4.690757E2,4.9705673E2,7.7537723E0,1.2298957E1,1.702572E1,3.5346306E1,9.267741E0,9.324421E0,7.022171E1,3.2732437E1,1.3888001E1,3.2417835E1,5.097863E0,1.9836498E1,1.1100225E1,1.4988608E0,4.143997E1,1.5788477E1,1.03473236E2,6.146623E1,4.1146936E0,4.563215E1,8.543832E0,1.9190706E1,1.0910374E1,2.470316E0,6.768069E0,5.1399628E1,2.3283817E2,1.1444353E2,2.3079855E1,1.4789567E1,3.1731875E3,1.3201843E1],"tree_param":{"num_deleted":"0","num_feature":"4","num_nodes":"123","size_leaf_vector":"1"}},{"base_weights":[2.7172915E-3,5.9200007E-1,-1.1220447E0,2.349218E-1,1.2132075E0,3.7867254E-1,-1.152388E0,-4.9332246E-1,4.698488E-1,1.0104468E0,1.3799474E0,7.7459157E-1,-9.015859E-1,-6.3459396E-1,-1.2263223E0,-7.309009E-1,6.2491037E-2,3.3513534E-1,8.878122E-1,5.959969E-1,1.2365893E0,1.4000885E0,5.7461745E-1,8.182602E-2,5.835806E-1,-1.3287392E0,7.935919E-1,-8.06868E-2,-1.078805E0,-7.05464E-1,-1.285359E0,-1.1381228E0,-4.903298E-1,7.904083E-1,-1.6779107E-1,8.059572E-1,1.9495827E-1,5.654119E-1,1.0658218E0,2.9921323E-1,1.4424107E0,1.2687695E0,3.8731772E-1,1.2842032E0,1.4849296E0,1.3098125E-1,7.6858215E-2,2.3721379E-1,1.2166696E0,-6.948685E-1,-7.90683E-2,1.5509664E-3,4.871869E-2,-9.4906086E-1,4.0180582E-1,-1.1801381E0,-6.6440976E-1,-8.353074E-1,4.5143995E-1,-1.1814559E0,-1.4433091E0,-6.1085224E-2,4.058806E-2,-3.2769393E-2,-2.2610782E-3,5.5066545E-2,-6.5157586E-3,-2.7934978E-2,3.1564254E-2,5.1547315E-2,1.0445927E-2,-3.4576263E-3,1.5708892E-2,3.896832E-2,-5.8302153E-3,5.7130314E-2,4.4768713E-3,5.7499487E-2,-1.5961936E-2,8.504014E-2,5.2449424E-2,5.193435E-2,7.188945E-2,-1.8690616E-3,6.762257E-2,5.8470186E-2,7.402675E-2,8.514559E-2,7.185367E-2,7.329165E-2,-2.5017029E-2,2.5886903E-2,-2.8299341E-2,6.352862E-2,4.1431403E-3,-6.563541E-2,4.0436373E-3,-5.6584843E-2,-1.24347145E-2,2.2898009E-2,-7.062099E-2,-1.973371E-2,-6.3110925E-2,-1.7519105E-2,-6.8793826E-2,-6.91984E-2,-3.7591495E-2,6.5678775E-2,5.810668E-4,-6.2374998E-2,-4.5841333E-2,-7.371901E-2,-2.4833715E-2],"categories":[],"categories_nodes":[],"categories_segments":[],"categories_sizes":[],"default_left":[0,0,0,0,0,0,0,0,0,0,0,0,0,0,0,0,0,0,0,0,0,0,0,0,0,0,0,0,0,0,0,0,0,0,0,0,0,0,0,0,0,0,0,0,0,0,0,0,0,0,0,0,0,0,0,0,0,0,0,0,0,0,0,0,0,0,0,0,0,0,0,0,0,0,0,0,0,0,0,0,0,0,0,0,0,0,0,0,0,0,0,0,0,0,0,0,0,0,0,0,0,0,0,0,0,0,0,0,0,0,0,0,0],"id":4,"left_children":[1,3,5,7,9,11,13,15,17,19,21,23,25,27,29,31,33,35,37,39,41,43,45,-1,47,49,51,53,55,57,59,61,63,65,67,69,71,73,75,77,79,81,83,85,87,89,-1,91,93,95,-1,-1,-1,97,99,101,103,105,107,109,111,-1,-1,-1,-1,-1,-1,-1,-1,-1,-1,-1,-1,-1,-1,-1,-1,-1,-1,-1,-1,-1,-1,-1,-1,-1,-1,-1,-1,-1,-1,-1,-1,-1,-1,-1,-1,-1,-1,-1,-1,-1,-1,-1,-1,-1,-1,-1,-1,-1,-1,-1,-1],"loss_changes":[8.900519E3,1.954366E3,2.106665E2,9.577488E2,1.0733789E2,4.7457348E1,1.7246826E2,1.8037115E2,2.3799567E2,1.3563635E2,2.7776855E1,1.0733795E1,1.7166903E1,1.3955032E2,1.2082959E2,9.3170685E1,6.883311E1,2.111825E2,5.8565247E1,1.2908566E2,2.5210815E1,1.4988281E1,1.8882322E1,0E0,1.2796339E1,1.8070946E0,6.734884E-1,1.0665723E2,1.24375305E1,6.1253967E1,5.6632324E1,5.8774628E1,4.4286514E1,2.839067E1,9.786424E1,9.8426056E1,7.7759026E1,5.3917274E1,4.9605774E1,2.018883E2,1.1796204E1,3.372705E1,1.4713801E1,1.4805786E1,7.835205E0,2.7434265E1,0E0,9.263432E0,1.1695709E0,3.4396935E0,0E0,0E0,0E0,1.13451E1,1.7329805E1,1.5729706E1,1.3851206E1,1.5663879E1,1.573728E1,3.6427246E1,4.062207E1,0E0,0E0,0E0,0E0,0E0,0E0,0E0,0E0,0E0,0E0,0E0,0E0,0E0,0E0,0E0,0E0,0E0,0E0,0E0,0E0,0E0,0E0,0E0,0E0,0E0,0E0,0E0,0E0,0E0,0E0,0E0,0E0,0E0,0E0,0E0,0E0,0E0,0E0,0E0,0E0,0E0,0E0,0E0,0E0,0E0,0E0,0E0,0E0,0E0,0E0,0E0,0E0],"parents":[2147483647,0,0,1,1,2,2,3,3,4,4,5,5,6,6,7,7,8,8,9,9,10,10,11,11,12,12,13,13,14,14,15,15,16,16,17,17,18,18,19,19,20,20,21,21,22,22,24,24,25,25,26,26,27,27,28,28,29,29,30,30,31,31,32,32,33,33,34,34,35,35,36,36,37,37,38,38,39,39,40,40,41,41,42,42,43,43,44,44,45,45,47,47,48,48,49,49,53,53,54,54,55,55,56,56,57,57,58,58,59,59,60,60],"right_children":[2,4,6,8,10,12,14,16,18,20,22,24,26,28,30,32,34,36,38,40,42,44,46,-1,48,50,52,54,56,58,60,62,64,66,68,70,72,74,76,78,80,82,84,86,88,90,-1,92,94,96,-1,-1,-1,98,100,102,104,106,108,110,112,-1,-1,-1,-1,-1,-1,-1,-1,-1,-1,-1,-1,-1,-1,-1,-1,-1,-1,-1,-1,-1,-1,-1,-1,-1,-1,-1,-1,-1,-1,-1,-1,-1,-1,-1,-1,-1,-1,-1,-1,-1,-1,-1,-1,-1,-1,-1,-1,-1,-1,-1,-1],"split_conditions":[1.3927E2,1.004E2,7.974E1,8.316E1,1.042E2,1.56E2,6.07E1,9.8E1,9.48E1,7.012E1,1.3017E2,6.64E1,9.21E1,1.2185E2,1.4543E2,6.849E1,8.679E1,7.64E1,9.796E1,1.6752E2,1.3277E2,1.065E2,1.5739E2,8.182602E-2,9.21E1,1.6273E2,7.2E1,1.7135E2,1.9473E2,1.6661E2,1.3757E2,1.8124E2,9.51E1,7.247E1,1.6241E2,1.275E2,9.927E1,1.7166E2,1.3277E2,9.701E1,5.904E1,9.405E1,1.5739E2,9.055E1,4.143E1,9.005E1,7.6858215E-2,1.4864E2,7.885E1,8.19E1,-7.90683E-2,1.5509664E-3,4.871869E-2,1.1602E2,2.0095E2,1.5094E2,2.0095E2,7.41E1,7.15E1,1.7464E2,1.7419E2,-6.1085224E-2,4.058806E-2,-3.2769393E-2,-2.2610782E-3,5.5066545E-2,-6.5157586E-3,-2.7934978E-2,3.1564254E-2,5.1547315E-2,1.0445927E-2,-3.4576263E-3,1.5708892E-2,3.896832E-2,-5.8302153E-3,5.7130314E-2,4.4768713E-3,5.7499487E-2,-1.5961936E-2,8.504014E-2,5.2449424E-2,5.193435E-2,7.188945E-2,-1.8690616E-3,6.762257E-2,5.8470186E-2,7.402675E-2,8.514559E-2,7.185367E-2,7.329165E-2,-2.5017029E-2,2.5886903E-2,-2.8299341E-2,6.352862E-2,4.1431403E-3,-6.563541E-2,4.0436373E-3,-5.6584843E-2,-1.24347145E-2,2.2898009E-2,-7.062099E-2,-1.973371E-2,-6.3110925E-2,-1.7519105E-2,-6.8793826E-2,-6.91984E-2,-3.7591495E-2,6.5678775E-2,5.810668E-4,-6.2374998E-2,-4.5841333E-2,-7.371901E-2,-2.4833715E-2],"split_indices":[1,2,0,1,2,1,2,2,2,1,1,2,2,0,1,1,0,2,1,0,1,2,0,0,2,1,0,1,1,0,0,0,2,1,0,1,1,0,1,0,1,1,0,1,1,0,0,1,0,2,0,0,0,0,1,1,1,2,2,1,0,0,0,0,0,0,0,0,0,0,0,0,0,0,0,0,0,0,0,0,0,0,0,0,0,0,0,0,0,0,0,0,0,0,0,0,0,0,0,0,0,0,0,0,0,0,0,0,0,0,0,0,0],"split_type":[0,0,0,0,0,0,0,0,0,0,0,0,0,0,0,0,0,0,0,0,0,0,0,0,0,0,0,0,0,0,0,0,0,0,0,0,0,0,0,0,0,0,0,0,0,0,0,0,0,0,0,0,0,0,0,0,0,0,0,0,0,0,0,0,0,0,0,0,0,0,0,0,0,0,0,0,0,0,0,0,0,0,0,0,0,0,0,0,0,0,0,0,0,0,0,0,0,0,0,0,0,0,0,0,0,0,0,0,0,0,0,0,0],"sum_hessian":[1.3426604E4,8.810894E3,4.61571E3,5.595757E3,3.215137E3,9.124887E1,4.524461E3,1.3645923E3,4.2311646E3,1.4540411E3,1.761096E3,6.9997246E1,2.1251627E1,5.665124E2,3.9579487E3,9.557492E2,4.0884302E2,3.2011921E3,1.0299723E3,5.145903E2,9.394508E2,1.7174056E3,4.3690258E1,1.1325182E1,5.8672062E1,1.7147053E1,4.104574E0,2.5265137E2,3.1386102E2,4.0426114E2,3.5536877E3,3.535513E2,6.0219794E2,9.7671844E1,3.1117117E2,7.333367E2,2.4678555E3,3.678752E2,6.620971E2,3.8200046E2,1.3258983E2,9.046773E2,3.4773495E1,7.327165E2,9.8468915E2,3.068409E1,1.3006168E1,3.8812305E1,1.9859755E1,5.955235E0,1.1191818E1,1.0111085E0,3.0934656E0,8.9894775E1,1.6275659E2,2.5070709E2,6.315393E1,3.6371777E2,4.0543358E1,2.1487014E3,1.4049863E3,3.3937735E2,1.4173963E1,4.3895084E2,1.6324709E2,7.286847E1,2.480338E1,2.0915382E2,1.0201734E2,5.320945E2,2.0124217E2,7.676583E2,1.7001971E3,2.7991934E2,8.795589E1,6.136624E2,4.84347E1,1.6043617E2,2.2156429E2,7.802285E1,5.4566982E1,3.8615656E2,5.1852075E2,2.4815092E1,9.958403E0,4.667524E2,2.659641E2,1.7103793E2,8.1365125E2,9.427969E0,2.1256123E1,2.9029076E1,9.78323E0,1.8843292E1,1.0164622E0,2.9296858E0,3.0255494E0,7.081289E1,1.9081882E1,1.5859529E2,4.161307E0,2.4269533E1,2.2643756E2,4.4850338E1,1.8303593E1,4.597378E1,3.17744E2,1.3025011E1,2.7518349E1,1.7165771E3,4.3212415E2,1.3597968E3,4.5189526E1],"tree_param":{"num_deleted":"0","num_feature":"4","num_nodes":"113","size_leaf_vector":"1"}},{"base_weights":[6.2510218E-3,5.7341003E-1,-1.0489975E0,1.0538964E0,-9.945913E-1,-2.9723048E-1,-1.1119866E0,1.4994007E0,5.682914E-1,-3.9917988E-1,-1.4489844E0,5.3956395E-1,-9.2341805E-1,-4.9038455E-1,-1.2036358E0,1.5601377E0,6.243384E-1,4.6820602E-1,1.2516084E0,1.1880342E0,-5.405586E-1,1.0192266E0,-1.469673E0,1.3531756E-1,7.420662E-1,-1.9769879E-1,-1.0586296E0,-2.9597822E-1,-1.4294379E0,-1.1409472E0,-8.078865E-2,1.6646035E0,1.3206437E0,1.3226366E-1,8.412941E-2,1.1675178E0,3.3968616E-1,1.3740925E0,9.093408E-1,1.4965692E0,4.6729165E-1,-7.2457355E-1,8.41382E-1,6.254038E-2,3.5875934E-1,-1.5067111E0,-3.9781356E-1,7.166606E-2,3.4293593E-3,1.0883688E0,7.5992934E-2,7.5017834E-1,-5.951523E-1,-1.2572944E0,-7.4972355E-1,-4.840355E-1,8.0861025E-2,-9.2820406E-1,-1.5939056E0,8.1194526E-1,-1.171087E0,8.429665E-2,7.018575E-2,7.221478E-2,5.962686E-2,8.209374E-2,-3.501834E-2,7.771531E-2,4.3421753E-2,7.5009696E-2,1.1349506E-2,8.552015E-2,6.496165E-2,2.2118894E-2,6.340246E-2,7.9029776E-2,5.1816728E-2,4.8766434E-2,-2.1135572E-2,3.980524E-2,-4.4056527E-2,7.239955E-2,-1.8253868E-2,-7.2077313E-3,4.6322785E-2,-5.865993E-2,-7.9708986E-2,5.71932E-2,-6.6193186E-2,-3.164705E-2,2.3755912E-2,6.5080404E-2,3.907181E-2,-1.6870102E-2,6.82578E-2,5.029122E-2,-1.6984677E-2,-5.1635634E-2,1.3005308E-2,-8.1120454E-2,-3.905159E-2,-2.8346796E-2,-7.409379E-2,6.705053E-2,-3.7644304E-2,-7.252052E-2,-2.274983E-2,-8.239832E-2,-1.441762E-2,5.8963448E-2,1.0154451E-2,-6.1742913E-2,-3.139805E-2],"categories":[],"categories_nodes":[],"categories_segments":[],"categories_sizes":[],"default_left":[0,0,0,0,0,0,0,0,0,0,0,0,0,0,0,0,0,0,0,0,0,0,0,0,0,0,0,0,0,0,0,0,0,0,0,0,0,0,0,0,0,0,0,0,0,0,0,0,0,0,0,0,0,0,0,0,0,0,0,0,0,0,0,0,0,0,0,0,0,0,0,0,0,0,0,0,0,0,0,0,0,0,0,0,0,0,0,0,0,0,0,0,0,0,0,0,0,0,0,0,0,0,0,0,0,0,0,0,0,0,0,0,0],"id":5,"left_children":[1,3,5,7,9,11,13,15,17,19,21,23,25,27,29,31,33,35,37,39,41,43,45,47,49,51,53,55,57,59,-1,61,63,65,-1,67,69,71,73,75,77,79,81,-1,83,85,87,-1,89,91,93,95,97,99,101,103,-1,105,107,109,111,-1,-1,-1,-1,-1,-1,-1,-1,-1,-1,-1,-1,-1,-1,-1,-1,-1,-1,-1,-1,-1,-1,-1,-1,-1,-1,-1,-1,-1,-1,-1,-1,-1,-1,-1,-1,-1,-1,-1,-1,-1,-1,-1,-1,-1,-1,-1,-1,-1,-1,-1,-1],"loss_changes":[7.996607E3,6.5484375E3,2.2084619E2,1.4383452E3,5.510498E2,1.9042688E2,2.4491016E2,1.8339355E2,2.1720972E2,1.9898639E2,6.052881E1,1.2651398E1,2.0170593E1,1.0097238E2,9.516943E1,7.894092E1,1.1788708E2,2.4939874E2,1.5781738E1,1.5446136E1,2.0717271E2,1.1113262E0,4.492871E1,9.104639E0,2.380513E1,1.3198335E1,9.787308E0,1.6679533E2,6.3521423E0,1.9298535E2,0E0,1.0176758E1,1.3956787E1,1.971169E2,0E0,4.851831E1,3.0690787E2,5.2610474E0,1.786866E1,3.1053162E-1,1.0910387E1,1.7148871E2,7.072353E1,0E0,1.2898619E0,3.0457031E1,5.814064E1,0E0,1.5101128E1,3.4375E0,1.9912851E1,3.2510962E0,9.401993E0,1.6979538E1,8.649822E0,2.075245E2,0E0,5.7316933E0,4.4749603E0,1.0982658E1,1.1052344E2,0E0,0E0,0E0,0E0,0E0,0E0,0E0,0E0,0E0,0E0,0E0,0E0,0E0,0E0,0E0,0E0,0E0,0E0,0E0,0E0,0E0,0E0,0E0,0E0,0E0,0E0,0E0,0E0,0E0,0E0,0E0,0E0,0E0,0E0,0E0,0E0,0E0,0E0,0E0,0E0,0E0,0E0,0E0,0E0,0E0,0E0,0E0,0E0,0E0,0E0,0E0,0E0],"parents":[2147483647,0,0,1,1,2,2,3,3,4,4,5,5,6,6,7,7,8,8,9,9,10,10,11,11,12,12,13,13,14,14,15,15,16,16,17,17,18,18,19,19,20,20,21,21,22,22,23,23,24,24,25,25,26,26,27,27,28,28,29,29,31,31,32,32,33,33,35,35,36,36,37,37,38,38,39,39,40,40,41,41,42,42,44,44,45,45,46,46,48,48,49,49,50,50,51,51,52,52,53,53,54,54,55,55,57,57,58,58,59,59,60,60],"right_children":[2,4,6,8,10,12,14,16,18,20,22,24,26,28,30,32,34,36,38,40,42,44,46,48,50,52,54,56,58,60,-1,62,64,66,-1,68,70,72,74,76,78,80,82,-1,84,86,88,-1,90,92,94,96,98,100,102,104,-1,106,108,110,112,-1,-1,-1,-1,-1,-1,-1,-1,-1,-1,-1,-1,-1,-1,-1,-1,-1,-1,-1,-1,-1,-1,-1,-1,-1,-1,-1,-1,-1,-1,-1,-1,-1,-1,-1,-1,-1,-1,-1,-1,-1,-1,-1,-1,-1,-1,-1,-1,-1,-1,-1,-1],"split_conditions":[1.3749E2,3.2E1,-4.6E1,1.7E1,3.9E1,1.2185E2,1.4543E2,1.3017E2,1.1064E2,4.344E1,3.166E1,1.7854E2,1.7084E2,5.1E1,5.5E1,1.3E1,1.5739E2,4.623E1,2.6E1,9.303E1,2.0266E2,1.0024E2,2.0469E2,9.962E1,1.1805E2,-5.7E1,1.9073E2,1.6406E2,5.7E1,8.594E1,-8.078865E-2,1.2493E2,1.5E1,9.524E1,8.412941E-2,3.7E1,4.344E1,5.548E1,1.1925E2,8.604E1,3.5E1,4.324E1,9.256E1,6.254038E-2,1.0589E2,4.2E1,9.256E1,7.166606E-2,1.1045E2,1.1444E2,1.9473E2,1.4543E2,1.6668E2,1.3367E2,2.0095E2,9.4E1,8.0861025E-2,1.4003E2,1.8409E2,8.059E1,1.7651E2,8.429665E-2,7.018575E-2,7.221478E-2,5.962686E-2,8.209374E-2,-3.501834E-2,7.771531E-2,4.3421753E-2,7.5009696E-2,1.1349506E-2,8.552015E-2,6.496165E-2,2.2118894E-2,6.340246E-2,7.9029776E-2,5.1816728E-2,4.8766434E-2,-2.1135572E-2,3.980524E-2,-4.4056527E-2,7.239955E-2,-1.8253868E-2,-7.2077313E-3,4.6322785E-2,-5.865993E-2,-7.9708986E-2,5.71932E-2,-6.6193186E-2,-3.164705E-2,2.3755912E-2,6.5080404E-2,3.907181E-2,-1.6870102E-2,6.82578E-2,5.029122E-2,-1.6984677E-2,-5.1635634E-2,1.3005308E-2,-8.1120454E-2,-3.905159E-2,-2.8346796E-2,-7.409379E-2,6.705053E-2,-3.7644304E-2,-7.252052E-2,-2.274983E-2,-8.239832E-2,-1.441762E-2,5.8963448E-2,1.0154451E-2,-6.1742913E-2,-3.139805E-2],"split_indices":[1,3,3,3,3,0,1,1,1,0,0,1,1,3,3,3,0,1,3,1,0,1,0,0,0,3,1,0,3,0,0,1,3,0,0,1,0,0,1,1,0,1,1,0,1,3,1,0,0,0,1,0,1,0,1,0,0,1,0,0,1,0,0,0,0,0,0,0,0,0,0,0,0,0,0,0,0,0,0,0,0,0,0,0,0,0,0,0,0,0,0,0,0,0,0,0,0,0,0,0,0,0,0,0,0,0,0,0,0,0,0,0,0],"split_type":[0,0,0,0,0,0,0,0,0,0,0,0,0,0,0,0,0,0,0,0,0,0,0,0,0,0,0,0,0,0,0,0,0,0,0,0,0,0,0,0,0,0,0,0,0,0,0,0,0,0,0,0,0,0,0,0,0,0,0,0,0,0,0,0,0,0,0,0,0,0,0,0,0,0,0,0,0,0,0,0,0,0,0,0,0,0,0,0,0,0,0,0,0,0,0,0,0,0,0,0,0,0,0,0,0,0,0,0,0,0,0,0,0],"sum_hessian":[1.3359216E4,8.689417E3,4.6697993E3,6.6515073E3,2.0379094E3,3.61466E2,4.3083335E3,3.4678972E3,3.1836099E3,8.828934E2,1.1550161E3,1.5477438E2,2.0669162E2,5.5441534E2,3.753918E3,3.2420852E3,2.2581204E2,2.77835E3,4.0525977E2,7.160489E1,8.1128845E2,9.199727E0,1.1458164E3,5.2212696E1,1.0256169E2,3.284818E1,1.7384344E2,4.604139E2,9.400142E1,3.26158E3,4.9233792E2,2.2532715E3,9.8881366E2,1.5490697E2,7.090508E1,4.300804E2,2.3482695E3,2.9623447E2,1.0902531E2,4.9386932E1,2.2217957E1,7.16374E2,9.491447E1,6.1496415E0,3.0500855E0,1.107153E3,3.8663433E1,3.9057536E0,4.8306946E1,6.706136E1,3.5500324E1,9.442213E0,2.3405966E1,1.0393208E2,6.991136E1,4.1988812E2,4.0525772E1,2.4865301E1,6.9136116E1,4.9177914E1,3.212402E3,2.0779238E3,1.7534785E2,4.979268E2,4.9088687E2,5.4721516E1,1.0018545E2,1.8571187E2,2.4436856E2,2.0676436E2,2.1415054E3,4.995599E1,2.4627847E2,4.8335667E1,6.068964E1,3.9703777E1,9.683152E0,1.408309E1,8.134867E0,6.648667E1,6.498873E2,6.3025154E1,3.188931E1,2.0129304E0,1.0371552E0,2.3303096E2,8.7412195E2,1.4420741E1,2.4242691E1,2.0418219E1,2.7888725E1,3.7658012E1,2.9403353E1,2.7439575E1,8.06075E0,7.710674E0,1.7315396E0,1.53468485E1,8.059117E0,5.7468666E1,4.646342E1,5.7364258E1,1.2547102E1,5.340044E1,3.664877E2,1.0838954E1,1.4026347E1,6.613529E1,3.0008254E0,3.0088581E1,1.9089334E1,2.8737112E3,3.3869095E2],"tree_param":{"num_deleted":"0","num_feature":"4","num_nodes":"113","size_leaf_vector":"1"}},{"base_weights":[2.1566793E-3,5.467923E-1,-1.0077565E0,2.0682906E-1,1.1389931E0,1.1004064E-1,-1.0468459E0,-4.52484E-1,4.7135824E-1,9.213854E-1,1.2804004E0,3.7223095E-1,-1.3330144E0,-6.267708E-1,-1.1204299E0,-6.632296E-1,4.1648638E-2,3.3579582E-1,8.937542E-1,6.465137E-1,1.2315387E0,1.2981336E0,2.376939E-1,1.8036789E-1,1.0573814E0,-1.4670689E0,5.51355E-3,-1.2673645E-1,-9.833506E-1,-4.8992878E-1,-1.1936519E0,-9.791741E-1,-3.9678395E-1,1.437996E0,-6.344777E-2,8.490358E-1,2.0613533E-1,6.420588E-1,1.07895E0,4.3323222E-1,1.2236261E0,1.277523E0,5.3360075E-1,1.2616411E0,8.107107E-2,-3.6775675E-1,1.3326278E0,9.009911E-1,-4.7799602E-2,1.3874844E0,8.3730286E-1,-7.731589E-2,-2.5189033E-2,-7.9748607E-1,4.873186E-1,-1.0240271E0,1.2560726E0,-6.836237E-1,7.2887325E-1,-1.0887161E0,-1.3434622E0,-5.1826365E-2,6.0691077E-2,-1.3189766E-2,-5.988837E-2,7.7956535E-2,3.0298902E-2,-8.742456E-3,6.1477035E-2,5.272549E-2,1.122791E-2,-3.7734478E-3,1.5089432E-2,3.9619464E-2,1.9479266E-3,5.703621E-2,4.8950496E-3,5.2053858E-2,9.025734E-6,8.145343E-2,4.7045495E-2,5.6468654E-2,7.087791E-2,6.4420536E-2,9.176273E-3,7.871114E-2,6.054316E-2,6.252055E-2,-5.400932E-2,2.6033236E-2,7.2343096E-2,6.791868E-2,1.2757051E-2,9.543847E-3,-2.8056515E-2,1.9794708E-2,7.577198E-2,-1.610751E-2,4.6510633E-2,5.387438E-3,-4.848034E-2,-3.201881E-2,2.9183695E-2,-5.783486E-2,-3.3027254E-2,1.6913632E-2,7.408891E-2,-6.0344394E-2,-3.056114E-2,6.4922065E-2,1.98572E-2,-5.7300694E-2,-4.1972384E-2,-6.916871E-2,-3.838336E-2],"categories":[],"categories_nodes":[],"categories_segments":[],"categories_sizes":[],"default_left":[0,0,0,0,0,0,0,0,0,0,0,0,0,0,0,0,0,0,0,0,0,0,0,0,0,0,0,0,0,0,0,0,0,0,0,0,0,0,0,0,0,0,0,0,0,0,0,0,0,0,0,0,0,0,0,0,0,0,0,0,0,0,0,0,0,0,0,0,0,0,0,0,0,0,0,0,0,0,0,0,0,0,0,0,0,0,0,0,0,0,0,0,0,0,0,0,0,0,0,0,0,0,0,0,0,0,0,0,0,0,0,0,0,0,0],"id":6,"left_children":[1,3,5,7,9,11,13,15,17,19,21,23,25,27,29,31,33,35,37,39,41,43,45,47,49,51,-1,53,55,57,59,61,63,65,67,69,71,73,75,77,79,81,83,85,-1,87,89,91,93,95,97,-1,-1,99,101,103,105,107,109,111,113,-1,-1,-1,-1,-1,-1,-1,-1,-1,-1,-1,-1,-1,-1,-1,-1,-1,-1,-1,-1,-1,-1,-1,-1,-1,-1,-1,-1,-1,-1,-1,-1,-1,-1,-1,-1,-1,-1,-1,-1,-1,-1,-1,-1,-1,-1,-1,-1,-1,-1,-1,-1,-1,-1],"loss_changes":[7.245363E3,1.7226267E3,2.0176367E2,9.4860785E2,9.4849365E1,5.9837006E1,1.3713428E2,1.6222498E2,2.2194452E2,1.04298706E2,3.4619873E1,1.7359308E1,4.8697205E0,1.1879297E2,1.7453467E2,9.153235E1,6.8568146E1,1.954639E2,4.3235107E1,8.017258E1,1.787207E1,1.9864502E1,2.2242697E1,1.7390434E1,9.451599E-1,9.2604065E-1,0E0,1.1520951E2,3.6736572E1,9.407366E1,5.1953125E1,6.4005035E1,6.2963173E1,2.3513336E0,6.2860455E1,7.5801025E1,6.3276672E1,3.6411255E1,3.2701904E1,1.26422745E2,1.8684204E1,9.636169E0,9.659751E0,2.465332E1,0E0,2.66127E1,3.5043144E-1,7.163212E0,1.0041304E1,6.788502E-1,2.4457874E0,0E0,0E0,2.0923096E1,1.6255287E1,1.7694672E1,1.0299921E0,1.2239365E1,9.845776E0,2.7652588E1,3.1005127E1,0E0,0E0,0E0,0E0,0E0,0E0,0E0,0E0,0E0,0E0,0E0,0E0,0E0,0E0,0E0,0E0,0E0,0E0,0E0,0E0,0E0,0E0,0E0,0E0,0E0,0E0,0E0,0E0,0E0,0E0,0E0,0E0,0E0,0E0,0E0,0E0,0E0,0E0,0E0,0E0,0E0,0E0,0E0,0E0,0E0,0E0,0E0,0E0,0E0,0E0,0E0,0E0,0E0,0E0],"parents":[2147483647,0,0,1,1,2,2,3,3,4,4,5,5,6,6,7,7,8,8,9,9,10,10,11,11,12,12,13,13,14,14,15,15,16,16,17,17,18,18,19,19,20,20,21,21,22,22,23,23,24,24,25,25,27,27,28,28,29,29,30,30,31,31,32,32,33,33,34,34,35,35,36,36,37,37,38,38,39,39,40,40,41,41,42,42,43,43,45,45,46,46,47,47,48,48,49,49,50,50,53,53,54,54,55,55,56,56,57,57,58,58,59,59,60,60],"right_children":[2,4,6,8,10,12,14,16,18,20,22,24,26,28,30,32,34,36,38,40,42,44,46,48,50,52,-1,54,56,58,60,62,64,66,68,70,72,74,76,78,80,82,84,86,-1,88,90,92,94,96,98,-1,-1,100,102,104,106,108,110,112,114,-1,-1,-1,-1,-1,-1,-1,-1,-1,-1,-1,-1,-1,-1,-1,-1,-1,-1,-1,-1,-1,-1,-1,-1,-1,-1,-1,-1,-1,-1,-1,-1,-1,-1,-1,-1,-1,-1,-1,-1,-1,-1,-1,-1,-1,-1,-1,-1,-1,-1,-1,-1,-1,-1],"split_conditions":[1.3749E2,1.004E2,8.594E1,8.661E1,1.037E2,1.642E2,6.33E1,9.78E1,9.46E1,8.546E1,1.3017E2,9.65E1,9.2E1,1.2086E2,1.4434E2,7.385E1,5.361E1,7.51E1,1.0277E2,1.6752E2,1.2927E2,2.0266E2,1.5739E2,6.96E1,1.4333E2,8.497E1,5.51355E-3,1.7464E2,1.7341E2,1.6499E2,1.3596E2,1.9077E2,1.7003E2,8.316E1,1.9489E2,1.275E2,9.841E1,1.8409E2,1.3277E2,9.701E1,5.904E1,1.0405E2,9.241E1,5.18E1,8.107107E-2,8.916E1,1.6172E2,7.502E1,1.5152E2,1.011E2,1.4499E2,-7.731589E-2,-2.5189033E-2,4.88E1,1.0418E2,1.9073E2,1.7419E2,7.41E1,7.72E1,1.7464E2,1.6661E2,-5.1826365E-2,6.0691077E-2,-1.3189766E-2,-5.988837E-2,7.7956535E-2,3.0298902E-2,-8.742456E-3,6.1477035E-2,5.272549E-2,1.122791E-2,-3.7734478E-3,1.5089432E-2,3.9619464E-2,1.9479266E-3,5.703621E-2,4.8950496E-3,5.2053858E-2,9.025734E-6,8.145343E-2,4.7045495E-2,5.6468654E-2,7.087791E-2,6.4420536E-2,9.176273E-3,7.871114E-2,6.054316E-2,6.252055E-2,-5.400932E-2,2.6033236E-2,7.2343096E-2,6.791868E-2,1.2757051E-2,9.543847E-3,-2.8056515E-2,1.9794708E-2,7.577198E-2,-1.610751E-2,4.6510633E-2,5.387438E-3,-4.848034E-2,-3.201881E-2,2.9183695E-2,-5.783486E-2,-3.3027254E-2,1.6913632E-2,7.408891E-2,-6.0344394E-2,-3.056114E-2,6.4922065E-2,1.98572E-2,-5.7300694E-2,-4.1972384E-2,-6.916871E-2,-3.838336E-2],"split_indices":[1,2,0,1,2,1,2,2,2,1,1,2,2,0,1,1,0,2,1,0,1,0,0,2,1,0,0,1,0,0,0,0,0,1,0,1,1,0,1,0,1,1,0,0,0,0,0,0,1,2,1,0,0,2,0,1,0,2,2,1,0,0,0,0,0,0,0,0,0,0,0,0,0,0,0,0,0,0,0,0,0,0,0,0,0,0,0,0,0,0,0,0,0,0,0,0,0,0,0,0,0,0,0,0,0,0,0,0,0,0,0,0,0,0,0],"split_type":[0,0,0,0,0,0,0,0,0,0,0,0,0,0,0,0,0,0,0,0,0,0,0,0,0,0,0,0,0,0,0,0,0,0,0,0,0,0,0,0,0,0,0,0,0,0,0,0,0,0,0,0,0,0,0,0,0,0,0,0,0,0,0,0,0,0,0,0,0,0,0,0,0,0,0,0,0,0,0,0,0,0,0,0,0,0,0,0,0,0,0,0,0,0,0,0,0,0,0,0,0,0,0,0,0,0,0,0,0,0,0,0,0,0,0],"sum_hessian":[1.3170554E4,8.556552E3,4.6140015E3,5.4368066E3,3.1197454E3,1.5583899E2,4.458162E3,1.5565494E3,3.8802573E3,1.2317522E3,1.8879932E3,1.3250589E2,2.3333094E1,6.659443E2,3.792218E3,1.09093E3,4.6561942E2,2.938863E3,9.4139435E2,6.546535E2,5.7709875E2,1.8561803E3,3.1812912E1,1.0450465E2,2.8001245E1,2.1334988E1,1.998106E0,2.7777454E2,3.881697E2,3.953787E2,3.3968394E3,4.978807E2,5.930493E2,3.170417E1,4.3391522E2,5.915925E2,2.3472705E3,4.0094553E2,5.404488E2,4.7927875E2,1.7537476E2,5.4064716E2,3.645154E1,1.6723129E3,1.8386742E2,2.0913042E1,1.0899871E1,2.4422394E1,8.008225E1,9.078941E0,1.8922302E1,1.9153961E1,2.1810255E0,1.3261581E2,1.4515872E2,3.8177786E2,6.391833E0,3.4153952E2,5.3839165E1,2.0024656E3,1.3943738E3,4.8570544E2,1.2175258E1,5.0974487E2,8.330444E1,2.6912088E1,4.7920814E0,4.0029166E2,3.3623573E1,4.4461182E2,1.4698071E2,5.952017E2,1.7520688E3,3.206945E2,8.025106E1,5.082809E2,3.2167877E1,1.9881366E2,2.804651E2,7.009276E1,1.0528199E2,2.671164E2,2.7353076E2,1.0700162E1,2.575138E1,2.2950578E2,1.4428071E3,6.161978E0,1.4751064E1,2.0298438E0,8.870027E0,1.3651412E1,1.0770982E1,5.5094063E1,2.4988195E1,1.5055633E0,7.5733786E0,1.2207545E0,1.770155E1,2.124674E1,1.1136908E2,1.0982223E1,1.341765E2,2.780926E2,1.03685295E2,1.7548233E0,4.6370096E0,3.9608295E1,3.0193124E2,1.8743334E1,3.5095833E1,1.6252769E3,3.7718875E2,1.302675E3,9.1698784E1],"tree_param":{"num_deleted":"0","num_feature":"4","num_nodes":"115","size_leaf_vector":"1"}},{"base_weights":[-7.906363E-3,5.077178E-1,-9.947832E-1,9.702161E-1,-9.700483E-1,-4.103351E-1,-1.0706013E0,1.3893756E0,5.15218E-1,-3.9198E-1,-1.4000413E0,1.9316418E-1,-9.2197555E-1,-1.6919285E-3,-1.109939E0,1.4783514E0,4.064913E-1,1.2934371E0,4.2574605E-1,1.1328408E0,-5.2236843E-1,-1.0476674E0,-1.5345559E0,-4.6610677E-1,5.815417E-1,-8.465975E-1,-1.497176E0,1.1189754E0,-1.2903211E0,-6.593288E-1,-1.1689079E0,1.5666187E0,1.180933E0,6.0259667E-3,7.975482E-2,1.4779975E0,9.8713624E-1,3.4768856E-1,1.5865774E0,1.4035217E0,4.99891E-1,-6.362197E-1,1.4401616E0,-1.1415235E0,4.0356997E-1,-1.54413E0,7.136099E-1,-5.7707407E-2,-7.533638E-1,8.1647265E-1,1.3235044E-2,-2.5719687E-1,-1.006438E0,-7.799391E-2,1.053204E-3,1.4850996E0,4.8217365E-1,-5.685417E-1,-1.4543959E0,-7.9045844E-1,5.653084E-1,-1.1140941E0,-1.5403876E0,7.9024605E-2,6.489263E-2,5.4296613E-2,7.1782075E-2,7.634568E-2,-3.7549447E-2,7.7599704E-2,5.18241E-2,7.7497676E-2,3.4155738E-2,5.7740908E-2,1.0743841E-2,7.107834E-2,8.453979E-2,7.4161865E-2,3.9477482E-2,4.5653343E-2,-1.4840606E-2,2.0516861E-2,-4.0741522E-2,7.3655434E-2,1.5510744E-2,8.334169E-3,-6.1807074E-2,3.544035E-2,-6.673265E-3,3.2469463E-2,-7.767405E-2,5.7356127E-2,-8.755336E-3,1.3051428E-2,-4.8970174E-2,-5.799469E-2,-4.296176E-3,7.329043E-2,3.4003485E-2,-1.6128922E-2,6.278017E-2,4.18507E-2,-3.1256095E-2,-6.271342E-2,-3.0724067E-2,3.9435845E-2,7.7412575E-2,5.4704346E-2,5.969032E-3,-1.5315619E-2,-6.1348896E-2,-1.20834075E-2,-7.42354E-2,-2.8448878E-2,-6.2107492E-2,7.785078E-2,-4.8451595E-2,-5.6292184E-2,6.5758735E-2,-5.230507E-2,-7.745583E-2],"categories":[],"categories_nodes":[],"categories_segments":[],"categories_sizes":[],"default_left":[0,0,0,0,0,0,0,0,0,0,0,0,0,0,0,0,0,0,0,0,0,0,0,0,0,0,0,0,0,0,0,0,0,0,0,0,0,0,0,0,0,0,0,0,0,0,0,0,0,0,0,0,0,0,0,0,0,0,0,0,0,0,0,0,0,0,0,0,0,0,0,0,0,0,0,0,0,0,0,0,0,0,0,0,0,0,0,0,0,0,0,0,0,0,0,0,0,0,0,0,0,0,0,0,0,0,0,0,0,0,0,0,0,0,0,0,0,0,0,0,0],"id":7,"left_children":[1,3,5,7,9,11,13,15,17,19,21,23,25,27,29,31,33,35,37,39,41,43,45,47,49,51,53,55,57,59,61,63,65,67,-1,69,71,73,75,77,79,81,83,85,87,89,91,93,95,97,99,101,103,-1,-1,105,107,109,111,113,115,117,119,-1,-1,-1,-1,-1,-1,-1,-1,-1,-1,-1,-1,-1,-1,-1,-1,-1,-1,-1,-1,-1,-1,-1,-1,-1,-1,-1,-1,-1,-1,-1,-1,-1,-1,-1,-1,-1,-1,-1,-1,-1,-1,-1,-1,-1,-1,-1,-1,-1,-1,-1,-1,-1,-1,-1,-1,-1,-1],"loss_changes":[6.66849E3,5.8838994E3,1.9884277E2,1.2496777E3,5.0957507E2,1.6013643E2,1.6735986E2,2.9778467E2,2.1845526E2,1.7491525E2,5.415674E1,6.134092E1,1.089566E1,2.0691548E2,1.0123779E2,8.027588E1,1.3546225E2,1.6848022E1,2.5519919E2,1.118589E1,1.8154451E2,4.516147E1,1.938208E1,1.0394617E1,2.0087791E1,2.3324677E1,3.0031738E0,1.715139E1,7.065666E0,7.21552E1,6.738135E1,6.932617E0,1.5863342E1,2.4740198E2,0E0,4.9277344E0,2.0290901E1,2.8338693E2,6.498413E-1,1.1805115E0,7.6239634E0,1.4329129E2,1.204628E0,3.8393097E1,3.483558E0,1.8362305E1,1.851902E0,1.1367244E1,1.4050791E1,8.435226E0,1.9198187E1,2.256395E1,1.8324951E1,0E0,0E0,8.976822E-1,6.408791E0,2.03894E0,1.613739E0,3.9686707E1,6.811365E1,8.598682E1,2.508545E-1,0E0,0E0,0E0,0E0,0E0,0E0,0E0,0E0,0E0,0E0,0E0,0E0,0E0,0E0,0E0,0E0,0E0,0E0,0E0,0E0,0E0,0E0,0E0,0E0,0E0,0E0,0E0,0E0,0E0,0E0,0E0,0E0,0E0,0E0,0E0,0E0,0E0,0E0,0E0,0E0,0E0,0E0,0E0,0E0,0E0,0E0,0E0,0E0,0E0,0E0,0E0,0E0,0E0,0E0,0E0,0E0,0E0,0E0],"parents":[2147483647,0,0,1,1,2,2,3,3,4,4,5,5,6,6,7,7,8,8,9,9,10,10,11,11,12,12,13,13,14,14,15,15,16,16,17,17,18,18,19,19,20,20,21,21,22,22,23,23,24,24,25,25,26,26,27,27,28,28,29,29,30,30,31,31,32,32,33,33,35,35,36,36,37,37,38,38,39,39,40,40,41,41,42,42,43,43,44,44,45,45,46,46,47,47,48,48,49,49,50,50,51,51,52,52,55,55,56,56,57,57,58,58,59,59,60,60,61,61,62,62],"right_children":[2,4,6,8,10,12,14,16,18,20,22,24,26,28,30,32,34,36,38,40,42,44,46,48,50,52,54,56,58,60,62,64,66,68,-1,70,72,74,76,78,80,82,84,86,88,90,92,94,96,98,100,102,104,-1,-1,106,108,110,112,114,116,118,120,-1,-1,-1,-1,-1,-1,-1,-1,-1,-1,-1,-1,-1,-1,-1,-1,-1,-1,-1,-1,-1,-1,-1,-1,-1,-1,-1,-1,-1,-1,-1,-1,-1,-1,-1,-1,-1,-1,-1,-1,-1,-1,-1,-1,-1,-1,-1,-1,-1,-1,-1,-1,-1,-1,-1,-1,-1,-1],"split_conditions":[1.3927E2,3.2E1,-3.8E1,1.7E1,3.9E1,1.2185E2,8.594E1,1.3017E2,4.987E1,4.344E1,4.3E1,1.7464E2,1.478E2,4.7E1,1.4577E2,1.4E1,1.5978E2,4.109E1,2.1259E2,9.21E1,2.1593E2,1.2584E2,2.1972E2,-4.6E1,1.1805E2,1.7186E2,1.7854E2,7.974E1,5.7E1,1.6661E2,5.5E1,1.2671E2,1.0589E2,9.701E1,7.975482E-2,2.9E1,7.466E1,4.492E1,2.1972E2,4.109E1,3.5E1,4.87E1,1.0861E2,4.344E1,4.1E1,3.166E1,9.21E1,1.7186E2,1.1178E2,-6.3E1,1.9473E2,-5.3E1,1.9073E2,-7.799391E-2,1.053204E-3,-1.3E1,1.4763E2,7.689E1,1.4003E2,8E0,5.1E1,1.7419E2,1.4662E2,7.9024605E-2,6.489263E-2,5.4296613E-2,7.1782075E-2,7.634568E-2,-3.7549447E-2,7.7599704E-2,5.18241E-2,7.7497676E-2,3.4155738E-2,5.7740908E-2,1.0743841E-2,7.107834E-2,8.453979E-2,7.4161865E-2,3.9477482E-2,4.5653343E-2,-1.4840606E-2,2.0516861E-2,-4.0741522E-2,7.3655434E-2,1.5510744E-2,8.334169E-3,-6.1807074E-2,3.544035E-2,-6.673265E-3,3.2469463E-2,-7.767405E-2,5.7356127E-2,-8.755336E-3,1.3051428E-2,-4.8970174E-2,-5.799469E-2,-4.296176E-3,7.329043E-2,3.4003485E-2,-1.6128922E-2,6.278017E-2,4.18507E-2,-3.1256095E-2,-6.271342E-2,-3.0724067E-2,3.9435845E-2,7.7412575E-2,5.4704346E-2,5.969032E-3,-1.5315619E-2,-6.1348896E-2,-1.20834075E-2,-7.42354E-2,-2.8448878E-2,-6.2107492E-2,7.785078E-2,-4.8451595E-2,-5.6292184E-2,6.5758735E-2,-5.230507E-2,-7.745583E-2],"split_indices":[1,3,3,3,3,0,0,1,0,0,3,1,0,3,1,3,0,0,0,1,0,1,0,3,0,1,1,0,3,0,3,1,1,0,0,3,1,1,0,0,0,1,1,0,3,0,1,1,0,3,1,3,1,0,0,3,1,0,1,3,3,0,1,0,0,0,0,0,0,0,0,0,0,0,0,0,0,0,0,0,0,0,0,0,0,0,0,0,0,0,0,0,0,0,0,0,0,0,0,0,0,0,0,0,0,0,0,0,0,0,0,0,0,0,0,0,0,0,0,0,0],"split_type":[0,0,0,0,0,0,0,0,0,0,0,0,0,0,0,0,0,0,0,0,0,0,0,0,0,0,0,0,0,0,0,0,0,0,0,0,0,0,0,0,0,0,0,0,0,0,0,0,0,0,0,0,0,0,0,0,0,0,0,0,0,0,0,0,0,0,0,0,0,0,0,0,0,0,0,0,0,0,0,0,0,0,0,0,0,0,0,0,0,0,0,0,0,0,0,0,0,0,0,0,0,0,0,0,0,0,0,0,0,0,0,0,0,0,0,0,0,0,0,0,0],"sum_hessian":[1.3102833E4,8.606558E3,4.4962754E3,6.5552856E3,2.0512725E3,5.1704236E2,3.9792332E3,3.4109504E3,3.1443352E3,8.7579474E2,1.1754777E3,2.3751128E2,2.7953107E2,1.412811E2,3.8379521E3,3.1273428E3,2.8360764E2,3.2284055E2,2.8214946E3,6.838476E1,8.0741E2,3.2718173E2,8.482959E2,8.7974464E1,1.4953682E2,2.4932915E2,3.0201914E1,7.5635605E1,6.564549E1,4.4554105E2,3.3924111E3,2.408335E3,7.190079E2,2.128868E2,7.072084E1,1.9906775E2,1.2377281E2,2.644941E3,1.7655363E2,4.7047478E1,2.1337284E1,7.6377716E2,4.363279E1,3.0750766E2,1.9674068E1,8.450105E2,3.2853947E0,3.682313E1,5.1151333E1,1.0549133E2,4.4045486E1,5.3747627E1,1.9558151E2,2.8977734E1,1.224181E0,4.717855E1,2.8457058E1,1.2985643E1,5.265985E1,4.0276862E2,4.277244E1,2.959692E3,4.327193E2,2.2854805E3,1.22854485E2,5.275186E2,1.9148927E2,7.0410645E1,1.4247615E2,1.6833945E2,3.0728294E1,4.1972828E1,8.179999E1,3.7263724E2,2.2723037E3,7.401111E1,1.0254253E2,4.038788E1,6.6595993E0,1.3954386E1,7.382899E0,1.11157906E2,6.5261926E2,4.210149E1,1.531297E0,2.0689459E1,2.868182E2,1.2340303E1,7.333764E0,3.2965229E0,8.41714E2,2.0127969E0,1.2725978E0,2.7893831E1,8.9293E0,3.1330482E1,1.982085E1,1.6621197E1,8.887013E1,3.525608E1,8.789404E0,1.3203976E1,4.054365E1,1.1847249E2,7.7109024E1,5.0442553E0,4.2134293E1,9.8416605E0,1.8615398E1,1.0334879E1,2.6507647E0,1.5029328E0,5.1156918E1,2.7176962E2,1.3099898E2,2.5971329E1,1.6801115E1,2.9459797E3,1.3712114E1,9.606114E0,4.2311316E2],"tree_param":{"num_deleted":"0","num_feature":"4","num_nodes":"121","size_leaf_vector":"1"}},{"base_weights":[2.6964743E-3,2.346716E-1,-1.2108239E0,-6.230729E-1,5.6553996E-1,-6.687955E-1,-1.3958844E0,-7.1082556E-1,1.3184845E0,3.2614088E-1,9.773479E-1,5.0633925E-1,-8.9857537E-1,-1.0249381E0,-1.5028547E0,1.259133E0,-8.06119E-1,7.4125916E-1,1.4644818E0,6.087049E-1,-4.1206527E-1,1.3048606E0,8.328842E-1,-2.9746836E-1,9.5354366E-1,-1.2874647E0,3.4220415E-1,-3.2932383E-1,-1.3998224E0,-1.5243611E0,4.077068E-1,7.0309293E-1,1.389021E0,-3.2138783E-1,-9.052034E-1,-1.375784E-1,1.4175841E0,7.974791E-1,7.486778E-2,8.954117E-2,7.7942425E-1,9.5880747E-1,-7.319163E-1,1.1762275E0,1.4821979E0,4.2417207E-1,1.2610414E0,-7.68643E-1,1.1319454E0,1.3225207E0,3.032268E-1,-1.3966153E0,1.675967E-1,6.894901E-2,-6.242984E-2,8.660956E-1,-4.8129973E-1,3.642382E-1,-1.4291141E0,-2.2454256E-1,-1.534176E0,-2.3034188E-1,7.179929E-2,-3.7639927E-2,5.6521554E-2,7.200428E-2,3.7311018E-2,1.6443321E-2,-4.0533103E-2,-5.4528546E-2,-3.267487E-2,-3.8000774E-2,1.488771E-2,7.35449E-2,2.0175971E-2,2.0840788E-2,5.421116E-2,-5.4001845E-3,7.616541E-2,4.561904E-2,1.4614609E-2,-4.070174E-2,6.1442252E-2,-5.4021608E-2,-9.901825E-4,7.1028024E-2,3.826712E-2,6.241081E-2,7.7372395E-2,1.15007125E-2,3.1714275E-2,5.716714E-2,7.459896E-2,6.0283687E-2,-6.077968E-2,1.4789941E-2,7.458494E-2,7.9876915E-2,5.2198697E-2,5.346782E-2,5.905147E-3,5.333075E-2,-7.322649E-2,-7.803205E-2,3.5603013E-2,-4.7742352E-2,6.1792877E-2,8.653329E-2,-2.650672E-2,-3.5862707E-2,2.592482E-2,3.365064E-2,-8.222742E-3,-7.258836E-2,-1.4362919E-2,-3.488114E-2,2.5293875E-2,-7.7031374E-2,-3.2387365E-2,4.873996E-2,-4.7573496E-2],"categories":[],"categories_nodes":[],"categories_segments":[],"categories_sizes":[],"default_left":[0,0,0,0,0,0,0,0,0,0,0,0,0,0,0,0,0,0,0,0,0,0,0,0,0,0,0,0,0,0,0,0,0,0,0,0,0,0,0,0,0,0,0,0,0,0,0,0,0,0,0,0,0,0,0,0,0,0,0,0,0,0,0,0,0,0,0,0,0,0,0,0,0,0,0,0,0,0,0,0,0,0,0,0,0,0,0,0,0,0,0,0,0,0,0,0,0,0,0,0,0,0,0,0,0,0,0,0,0,0,0,0,0,0,0,0,0,0,0,0,0],"id":8,"left_children":[1,3,5,7,9,11,13,15,17,19,21,23,25,27,29,31,33,35,37,39,41,43,45,47,49,51,53,55,57,59,61,63,65,67,69,71,73,75,-1,77,79,81,83,85,87,89,91,93,95,97,99,101,103,-1,105,107,109,111,113,115,117,119,-1,-1,-1,-1,-1,-1,-1,-1,-1,-1,-1,-1,-1,-1,-1,-1,-1,-1,-1,-1,-1,-1,-1,-1,-1,-1,-1,-1,-1,-1,-1,-1,-1,-1,-1,-1,-1,-1,-1,-1,-1,-1,-1,-1,-1,-1,-1,-1,-1,-1,-1,-1,-1,-1,-1,-1,-1,-1,-1],"loss_changes":[3.6559304E3,3.0945828E3,2.0812622E2,5.181062E2,7.7539746E2,1.4421202E2,6.0074707E1,5.4632263E2,1.0005737E1,1.0384653E3,1.3574927E2,3.1813938E1,2.1549039E2,9.09924E1,5.005542E1,8.731842E0,1.32818E2,1.7190285E1,1.0866547E0,3.189944E2,6.050876E2,1.8409546E1,3.511394E2,2.2501492E1,1.3179401E1,5.4158997E1,4.503369E1,2.2966507E1,1.228006E1,1.48359375E1,9.634766E0,1.7947601E1,2.4685822E0,1.5040617E2,1.0662427E2,3.8427508E0,2.8482437E-1,3.1490326E-1,0E0,2.5279915E2,1.751842E2,1.2604318E2,2.7749298E2,5.0804565E1,3.6802979E0,4.1859985E1,2.4958008E1,2.3306465E1,2.0755253E0,1.0755539E0,2.9634454E0,5.4416687E1,2.4245256E1,0E0,9.1576965E1,1.8248495E1,2.650178E1,8.475853E-1,5.378662E0,3.8391466E0,5.754883E0,9.281531E0,0E0,0E0,0E0,0E0,0E0,0E0,0E0,0E0,0E0,0E0,0E0,0E0,0E0,0E0,0E0,0E0,0E0,0E0,0E0,0E0,0E0,0E0,0E0,0E0,0E0,0E0,0E0,0E0,0E0,0E0,0E0,0E0,0E0,0E0,0E0,0E0,0E0,0E0,0E0,0E0,0E0,0E0,0E0,0E0,0E0,0E0,0E0,0E0,0E0,0E0,0E0,0E0,0E0,0E0,0E0,0E0,0E0,0E0,0E0],"parents":[2147483647,0,0,1,1,2,2,3,3,4,4,5,5,6,6,7,7,8,8,9,9,10,10,11,11,12,12,13,13,14,14,15,15,16,16,17,17,18,18,19,19,20,20,21,21,22,22,23,23,24,24,25,25,26,26,27,27,28,28,29,29,30,30,31,31,32,32,33,33,34,34,35,35,36,36,37,37,39,39,40,40,41,41,42,42,43,43,44,44,45,45,46,46,47,47,48,48,49,49,50,50,51,51,52,52,54,54,55,55,56,56,57,57,58,58,59,59,60,60,61,61],"right_children":[2,4,6,8,10,12,14,16,18,20,22,24,26,28,30,32,34,36,38,40,42,44,46,48,50,52,54,56,58,60,62,64,66,68,70,72,74,76,-1,78,80,82,84,86,88,90,92,94,96,98,100,102,104,-1,106,108,110,112,114,116,118,120,-1,-1,-1,-1,-1,-1,-1,-1,-1,-1,-1,-1,-1,-1,-1,-1,-1,-1,-1,-1,-1,-1,-1,-1,-1,-1,-1,-1,-1,-1,-1,-1,-1,-1,-1,-1,-1,-1,-1,-1,-1,-1,-1,-1,-1,-1,-1,-1,-1,-1,-1,-1,-1,-1,-1,-1,-1,-1,-1],"split_conditions":[3.6E1,-2E0,4.1E1,1.6499E2,1.007E2,7.47E1,7.57E1,9.005E1,-1.3E1,2.4E1,9.318E1,6.64E1,1.005E2,5.1E1,1.061E2,8.68E1,-4E1,1.7505E2,1.6586E2,6E0,7.57E1,2.1E1,1.5582E2,1.5891E2,7.15E1,2.0711E2,7.09E1,7.2E1,7.09E1,3.815E1,2.0711E2,-2.2E1,8.834E1,1.2086E2,9.27E1,1.6842E2,1.042E2,1.035E2,7.486778E-2,1.6499E2,2E1,6.07E1,9.63E1,1.4E1,1.026E2,1.049E2,2.3E1,9.807E1,1.6752E2,3.8E1,7.598E1,3.166E1,9.18E1,6.894901E-2,1.7419E2,7.19E1,1.6586E2,7.12E1,1.8041E2,9.93E1,2.1259E2,4.3E1,7.179929E-2,-3.7639927E-2,5.6521554E-2,7.200428E-2,3.7311018E-2,1.6443321E-2,-4.0533103E-2,-5.4528546E-2,-3.267487E-2,-3.8000774E-2,1.488771E-2,7.35449E-2,2.0175971E-2,2.0840788E-2,5.421116E-2,-5.4001845E-3,7.616541E-2,4.561904E-2,1.4614609E-2,-4.070174E-2,6.1442252E-2,-5.4021608E-2,-9.901825E-4,7.1028024E-2,3.826712E-2,6.241081E-2,7.7372395E-2,1.15007125E-2,3.1714275E-2,5.716714E-2,7.459896E-2,6.0283687E-2,-6.077968E-2,1.4789941E-2,7.458494E-2,7.9876915E-2,5.2198697E-2,5.346782E-2,5.905147E-3,5.333075E-2,-7.322649E-2,-7.803205E-2,3.5603013E-2,-4.7742352E-2,6.1792877E-2,8.653329E-2,-2.650672E-2,-3.5862707E-2,2.592482E-2,3.365064E-2,-8.222742E-3,-7.258836E-2,-1.4362919E-2,-3.488114E-2,2.5293875E-2,-7.7031374E-2,-3.2387365E-2,4.873996E-2,-4.7573496E-2],"split_indices":[3,3,3,0,2,2,2,0,3,3,0,2,2,3,2,2,3,0,0,3,2,3,0,0,2,0,0,0,0,0,0,3,0,0,2,0,2,2,0,0,3,2,2,3,2,2,3,0,0,3,0,0,2,0,0,2,0,2,0,2,0,3,0,0,0,0,0,0,0,0,0,0,0,0,0,0,0,0,0,0,0,0,0,0,0,0,0,0,0,0,0,0,0,0,0,0,0,0,0,0,0,0,0,0,0,0,0,0,0,0,0,0,0,0,0,0,0,0,0,0,0],"split_type":[0,0,0,0,0,0,0,0,0,0,0,0,0,0,0,0,0,0,0,0,0,0,0,0,0,0,0,0,0,0,0,0,0,0,0,0,0,0,0,0,0,0,0,0,0,0,0,0,0,0,0,0,0,0,0,0,0,0,0,0,0,0,0,0,0,0,0,0,0,0,0,0,0,0,0,0,0,0,0,0,0,0,0,0,0,0,0,0,0,0,0,0,0,0,0,0,0,0,0,0,0,0,0,0,0,0,0,0,0,0,0,0,0,0,0,0,0,0,0,0,0],"sum_hessian":[1.298501E4,1.0901835E4,2.0831753E3,3.0344446E3,7.86739E3,5.313894E2,1.5517858E3,2.9038337E3,1.3061075E2,4.976285E3,2.891105E3,8.671418E1,4.446752E2,3.4969876E2,1.202087E3,1.3342323E2,2.7704104E3,2.759326E1,1.0301748E2,3.598904E3,1.3773813E3,8.8245764E2,2.0086472E3,3.1117765E1,5.5596413E1,3.3853333E2,1.06141884E2,1.2312091E2,2.2657784E2,1.1889061E3,1.3180934E1,2.647954E1,1.0694369E2,4.7091052E2,2.2995E3,1.2346463E1,1.5246797E1,6.025229E0,9.699225E1,8.9096655E2,2.7079375E3,2.6019498E2,1.1171863E3,5.15887E2,3.6657065E2,1.028678E3,9.799693E2,2.375103E1,7.366736E0,3.4811428E1,2.0784985E1,3.1494785E2,2.3585453E1,2.9120289E1,7.70216E1,1.3357097E1,1.0976382E2,3.5140514E0,2.230638E2,9.089024E0,1.1798171E3,8.6127205E0,4.5682135E0,5.835856E0,2.0643682E1,9.792418E1,9.019508E0,2.0233351E2,2.6857703E2,1.3223384E3,9.771616E2,4.7743244E0,7.5721393E0,1.4057248E1,1.1895485E0,3.6428406E0,2.3823886E0,7.83887E2,1.0707952E2,2.1266282E3,5.813093E2,3.412751E1,2.2606746E2,7.497386E2,3.6744772E2,3.2197E2,1.9391699E2,8.432319E1,2.8224747E2,5.3572736E2,4.929506E2,6.530763E2,3.2689297E2,4.0709314E0,1.9680098E1,2.764245E0,4.602491E0,1.5133964E1,1.9677465E1,3.1154304E0,1.7669554E1,8.055974E0,3.0689188E2,5.2031665E0,1.8382286E1,4.5802437E1,3.1219162E1,8.101177E0,5.2559195E0,8.9034134E1,2.0729681E1,2.0460908E0,1.4679605E0,2.1845844E2,4.6053605E0,5.543499E0,3.545525E0,1.1705597E3,9.257389E0,3.092612E0,5.5201087E0],"tree_param":{"num_deleted":"0","num_feature":"4","num_nodes":"121","size_leaf_vector":"1"}},{"base_weights":[-5.5218406E-4,4.8659515E-1,-9.392331E-1,1.8363002E-1,9.9070895E-1,3.5570198E-1,-9.632694E-1,-5.047648E-1,3.8114613E-1,8.1534374E-1,1.1631861E0,7.033678E-1,-7.936883E-1,-4.5546952E-1,-1.0212837E0,-8.126758E-1,-1.4350966E-1,2.9608884E-1,7.414822E-1,5.575638E-1,1.1067244E0,1.1837094E0,3.9991337E-1,-9.4086957E-1,8.067926E-1,-1.1768858E0,1.3558665E-1,-1.1471743E-2,-8.693882E-1,-6.4516056E-1,-1.0899278E0,-9.6663827E-1,-3.3168843E-1,-2.4998204E-1,1.1831625E0,7.4460703E-1,1.6951779E-1,4.2493692E-1,9.301484E-1,4.592296E-1,1.4715987E0,1.1583482E0,1.1257652E-1,1.1458045E0,7.4957855E-2,4.1014243E-2,6.857865E-2,-1.0468009E-2,-5.86254E-2,6.937564E-2,6.934838E-1,-7.2455865E-1,-6.735941E-2,6.031162E-1,-2.9206509E-2,-6.997992E-1,2.575584E-1,-1.0658584E-1,-9.15943E-1,-7.6809293E-1,6.1285275E-1,-9.787894E-1,-1.2664164E0,-4.9404636E-2,5.093679E-2,-1.0549326E-2,-6.5574616E-2,5.174878E-2,-1.9134961E-2,7.833931E-2,4.1466814E-2,4.7811024E-2,1.0552566E-2,7.5327903E-3,6.989785E-2,-1.8522555E-3,3.0340804E-2,5.01888E-2,5.447055E-4,4.837839E-2,9.23505E-3,7.7154316E-2,1.7851217E-2,4.986167E-2,6.285978E-2,-1.4268063E-2,5.9519E-2,7.21518E-2,5.464678E-2,6.008023E-2,-1.5520177E-2,2.0348625E-2,5.1839657E-2,-5.65555E-2,-7.5959647E-3,-5.430023E-3,4.5080196E-2,-4.737895E-2,7.0972266E-3,2.6831696E-2,-3.5062542E-3,-5.7645958E-2,4.4858854E-2,-4.1015707E-2,-6.64533E-2,-5.852879E-3,-4.279712E-2,5.5864792E-2,1.3602507E-2,-5.2187946E-2,-3.7953388E-2,-6.4351894E-2,-2.5473569E-2],"categories":[],"categories_nodes":[],"categories_segments":[],"categories_sizes":[],"default_left":[0,0,0,0,0,0,0,0,0,0,0,0,0,0,0,0,0,0,0,0,0,0,0,0,0,0,0,0,0,0,0,0,0,0,0,0,0,0,0,0,0,0,0,0,0,0,0,0,0,0,0,0,0,0,0,0,0,0,0,0,0,0,0,0,0,0,0,0,0,0,0,0,0,0,0,0,0,0,0,0,0,0,0,0,0,0,0,0,0,0,0,0,0,0,0,0,0,0,0,0,0,0,0,0,0,0,0,0,0,0,0,0,0],"id":9,"left_children":[1,3,5,7,9,11,13,15,17,19,21,23,25,27,29,31,33,35,37,39,41,43,45,47,49,51,53,55,57,59,61,63,65,67,69,71,73,75,77,79,81,83,85,87,-1,89,-1,-1,-1,-1,91,93,-1,95,-1,97,99,101,103,105,107,109,111,-1,-1,-1,-1,-1,-1,-1,-1,-1,-1,-1,-1,-1,-1,-1,-1,-1,-1,-1,-1,-1,-1,-1,-1,-1,-1,-1,-1,-1,-1,-1,-1,-1,-1,-1,-1,-1,-1,-1,-1,-1,-1,-1,-1,-1,-1,-1,-1,-1,-1],"loss_changes":[5.888428E3,1.2945896E3,1.3728247E2,7.203462E2,9.529956E1,3.288891E1,1.2679224E2,1.312833E2,1.2593762E2,1.181499E2,2.4620605E1,1.1412645E1,7.017641E0,8.1719154E1,9.936963E1,4.68898E1,7.724724E1,1.8901596E2,4.6510162E1,7.491287E1,3.7909668E1,1.69292E1,1.509802E1,4.6095443E-1,2.9515228E0,8.226013E-2,2.5461004E0,4.0100517E1,8.075134E0,9.336313E1,6.3024414E1,2.155481E1,1.8185123E1,8.6538345E1,4.2178993E0,8.255835E1,6.0028145E1,2.4821793E1,3.323889E1,1.05986984E2,5.921646E0,9.966309E0,1.6507854E1,2.03667E1,0E0,1.3736296E1,0E0,0E0,0E0,0E0,4.669983E0,1.2067816E0,0E0,1.0420519E0,0E0,1.2825464E1,1.427855E1,1.6126234E1,7.473572E0,3.1220612E1,8.984156E0,2.7968994E1,1.9052002E1,0E0,0E0,0E0,0E0,0E0,0E0,0E0,0E0,0E0,0E0,0E0,0E0,0E0,0E0,0E0,0E0,0E0,0E0,0E0,0E0,0E0,0E0,0E0,0E0,0E0,0E0,0E0,0E0,0E0,0E0,0E0,0E0,0E0,0E0,0E0,0E0,0E0,0E0,0E0,0E0,0E0,0E0,0E0,0E0,0E0,0E0,0E0,0E0,0E0,0E0],"parents":[2147483647,0,0,1,1,2,2,3,3,4,4,5,5,6,6,7,7,8,8,9,9,10,10,11,11,12,12,13,13,14,14,15,15,16,16,17,17,18,18,19,19,20,20,21,21,22,22,23,23,24,24,25,25,26,26,27,27,28,28,29,29,30,30,31,31,32,32,33,33,34,34,35,35,36,36,37,37,38,38,39,39,40,40,41,41,42,42,43,43,45,45,50,50,51,51,53,53,55,55,56,56,57,57,58,58,59,59,60,60,61,61,62,62],"right_children":[2,4,6,8,10,12,14,16,18,20,22,24,26,28,30,32,34,36,38,40,42,44,46,48,50,52,54,56,58,60,62,64,66,68,70,72,74,76,78,80,82,84,86,88,-1,90,-1,-1,-1,-1,92,94,-1,96,-1,98,100,102,104,106,108,110,112,-1,-1,-1,-1,-1,-1,-1,-1,-1,-1,-1,-1,-1,-1,-1,-1,-1,-1,-1,-1,-1,-1,-1,-1,-1,-1,-1,-1,-1,-1,-1,-1,-1,-1,-1,-1,-1,-1,-1,-1,-1,-1,-1,-1,-1,-1,-1,-1,-1,-1],"split_conditions":[1.3927E2,9.99E1,7.885E1,8.205E1,1.043E2,1.5523E2,5.77E1,9.61E1,9.56E1,8.546E1,1.3017E2,5.845E1,8.78E1,1.2337E2,1.4731E2,7.858E1,1.935E2,7.64E1,9.796E1,1.9489E2,1.3277E2,2.0097E2,1.6172E2,8.3E1,6.64E1,1.6273E2,7.598E1,1.7135E2,1.5057E2,1.6661E2,1.3757E2,1.9919E2,1.7003E2,6.111E1,7.247E1,1.2671E2,2.1593E2,9.456E1,1.3277E2,9.701E1,8.373E1,1.0024E2,1.5978E2,5.361E1,7.4957855E-2,9.005E1,6.857865E-2,-1.0468009E-2,-5.86254E-2,6.937564E-2,8.86E1,1.602E2,-6.735941E-2,1.6232E2,-2.9206509E-2,1.1602E2,1.1775E2,1.4675E2,1.4543E2,1.0114E2,7.72E1,1.7464E2,1.7419E2,-4.9404636E-2,5.093679E-2,-1.0549326E-2,-6.5574616E-2,5.174878E-2,-1.9134961E-2,7.833931E-2,4.1466814E-2,4.7811024E-2,1.0552566E-2,7.5327903E-3,6.989785E-2,-1.8522555E-3,3.0340804E-2,5.01888E-2,5.447055E-4,4.837839E-2,9.23505E-3,7.7154316E-2,1.7851217E-2,4.986167E-2,6.285978E-2,-1.4268063E-2,5.9519E-2,7.21518E-2,5.464678E-2,6.008023E-2,-1.5520177E-2,2.0348625E-2,5.1839657E-2,-5.65555E-2,-7.5959647E-3,-5.430023E-3,4.5080196E-2,-4.737895E-2,7.0972266E-3,2.6831696E-2,-3.5062542E-3,-5.7645958E-2,4.4858854E-2,-4.1015707E-2,-6.64533E-2,-5.852879E-3,-4.279712E-2,5.5864792E-2,1.3602507E-2,-5.2187946E-2,-3.7953388E-2,-6.4351894E-2,-2.5473569E-2],"split_indices":[1,2,0,1,2,1,2,2,2,1,1,0,2,0,1,1,0,2,1,0,1,0,0,2,2,1,0,1,1,0,0,0,0,0,1,1,0,0,1,0,1,1,0,0,0,0,0,0,0,0,2,1,0,1,0,0,0,0,0,0,2,1,0,0,0,0,0,0,0,0,0,0,0,0,0,0,0,0,0,0,0,0,0,0,0,0,0,0,0,0,0,0,0,0,0,0,0,0,0,0,0,0,0,0,0,0,0,0,0,0,0,0,0],"split_type":[0,0,0,0,0,0,0,0,0,0,0,0,0,0,0,0,0,0,0,0,0,0,0,0,0,0,0,0,0,0,0,0,0,0,0,0,0,0,0,0,0,0,0,0,0,0,0,0,0,0,0,0,0,0,0,0,0,0,0,0,0,0,0,0,0,0,0,0,0,0,0,0,0,0,0,0,0,0,0,0,0,0,0,0,0,0,0,0,0,0,0,0,0,0,0,0,0,0,0,0,0,0,0,0,0,0,0,0,0,0,0,0,0],"sum_hessian":[1.2875189E4,8.47658E3,4.39861E3,5.295453E3,3.1811267E3,7.990679E1,4.318703E3,1.1802881E3,4.115165E3,1.5801969E3,1.6009298E3,6.164773E1,1.825906E1,4.4371432E2,3.8749888E3,6.365141E2,5.43774E2,3.330761E3,7.84404E2,8.3998706E2,7.4020984E2,1.558474E3,4.2455875E1,3.1690686E0,5.8478664E1,1.2739373E1,5.5196867E0,2.1457455E2,2.2913979E2,5.996599E2,3.2753289E3,4.8140744E2,1.5510664E2,5.0412674E2,3.9647236E1,7.3199066E2,2.5987705E3,2.9414243E2,4.9026157E2,7.597533E2,8.023377E1,7.035129E2,3.6696934E1,1.395429E3,1.63045E2,3.1765102E1,1.0690774E1,1.2200377E0,1.9490309E0,7.7114124E0,5.076725E1,4.921717E0,7.817656E0,3.4442825E0,2.0754042E0,5.9848335E1,1.5472621E2,1.3369497E1,2.1577028E2,5.466327E2,5.3027214E1,2.0137656E3,1.2615632E3,4.7675778E2,4.64964E0,1.391768E2,1.5929839E1,4.655794E1,4.575688E2,1.737782E1,2.2269419E1,5.235525E2,2.084382E2,2.560577E3,3.8193546E1,8.331485E1,2.1082756E2,4.5382086E2,3.64407E1,2.6553815E2,4.9421518E2,7.5036545E1,5.197224E0,2.7171848E2,4.317944E2,2.733848E1,9.358452E0,2.0675406E2,1.1886749E3,6.820489E0,2.4944613E1,2.8864014E1,2.1903238E1,2.3079247E0,2.6137924E0,1.2056602E0,2.2386224E0,4.614047E1,1.3707865E1,8.321636E1,7.150986E1,6.4731836E0,6.8963137E0,1.7763687E2,3.8133415E1,6.526901E1,4.8136368E2,2.0461887E1,3.2565327E1,1.551309E3,4.6245667E2,1.2274243E3,3.4138832E1],"tree_param":{"num_deleted":"0","num_feature":"4","num_nodes":"113","size_leaf_vector":"1"}},{"base_weights":[2.1698964E-3,2.292926E-1,-1.1893884E0,-5.7618535E-1,5.3779197E-1,-1.2709332E0,-1.6448468E-1,-6.5970796E-1,1.2589579E0,3.24838E-1,9.1142064E-1,-7.275092E-1,-1.4163421E0,2.8202054E-1,-1.1621399E0,1.1568289E0,-7.55774E-1,4.946894E-1,1.3556012E0,6.129339E-1,-3.1590134E-1,7.6831603E-1,1.2255937E0,8.2032874E-2,-1.2898138E0,-1.4375235E0,6.1178315E-1,-6.396105E-2,7.019093E-2,-1.3458971E0,3.88599E-1,1.3157274E0,4.3032184E-1,-1.6677195E-1,-8.4474295E-1,-5.7170165E-1,8.9273006E-1,9.515138E-1,7.173689E-2,2.8275034E-1,8.8236713E-1,7.994185E-1,-6.753522E-1,1.2104446E0,3.9294374E-1,1.1185524E0,1.4410173E0,-7.4669856E-1,2.9043362E-1,4.6166182E-1,-1.3360853E0,8.870547E-1,-1.4563208E0,-5.965407E-2,8.7702006E-1,1.1309025E0,-9.1640025E-1,4.9133354E-1,-1.4866598E0,-1.7334579E-1,4.4191465E-2,4.2546436E-2,7.029463E-2,-3.767577E-2,3.7160173E-2,2.0216724E-2,-4.1001953E-2,-3.6251564E-2,-5.477641E-2,-4.4975962E-2,-9.8706735E-3,9.707561E-3,5.033029E-2,9.947417E-3,6.756317E-2,3.9700004E-3,7.3071145E-2,5.450915E-2,2.0870915E-2,-2.6647756E-2,4.7817137E-2,-4.91872E-2,6.703938E-3,7.074122E-2,5.5879224E-2,1.10714575E-2,2.9958649E-2,6.99411E-2,4.381881E-2,6.2042333E-2,7.567978E-2,5.318105E-2,-4.585397E-2,3.8093235E-2,1.9878068E-3,4.1283518E-2,-1.9423706E-2,-6.8708576E-2,1.1517823E-3,1.1658111E-2,5.0373435E-2,-4.078763E-2,-7.333019E-2,6.199897E-2,5.846299E-4,6.825924E-2,2.5065465E-2,-5.892715E-2,2.6840338E-2,3.593449E-2,-3.0780407E-3,-7.846158E-2,-3.415151E-2,5.711274E-3,-1.670578E-2],"categories":[],"categories_nodes":[],"categories_segments":[],"categories_sizes":[],"default_left":[0,0,0,0,0,0,0,0,0,0,0,0,0,0,0,0,0,0,0,0,0,0,0,0,0,0,0,0,0,0,0,0,0,0,0,0,0,0,0,0,0,0,0,0,0,0,0,0,0,0,0,0,0,0,0,0,0,0,0,0,0,0,0,0,0,0,0,0,0,0,0,0,0,0,0,0,0,0,0,0,0,0,0,0,0,0,0,0,0,0,0,0,0,0,0,0,0,0,0,0,0,0,0,0,0,0,0,0,0,0,0,0,0,0,0],"id":10,"left_children":[1,3,5,7,9,11,13,15,17,19,21,23,25,27,29,31,33,35,37,39,41,43,45,47,49,51,53,55,-1,57,59,61,63,65,67,69,71,73,-1,75,77,79,81,83,85,87,89,91,93,95,97,99,101,-1,103,105,107,109,111,113,-1,-1,-1,-1,-1,-1,-1,-1,-1,-1,-1,-1,-1,-1,-1,-1,-1,-1,-1,-1,-1,-1,-1,-1,-1,-1,-1,-1,-1,-1,-1,-1,-1,-1,-1,-1,-1,-1,-1,-1,-1,-1,-1,-1,-1,-1,-1,-1,-1,-1,-1,-1,-1,-1,-1],"loss_changes":[3.4470852E3,2.6586729E3,1.7021533E2,4.5501166E2,6.1521924E2,1.4821436E2,6.778538E1,4.9557263E2,8.882248E0,9.1006305E2,1.25301025E2,1.8253401E2,6.484375E1,4.100499E1,1.3920578E1,1.5916748E1,1.409823E2,7.341475E0,2.2880554E0,3.0227014E2,6.137163E2,3.2014124E2,1.8612305E1,2.8749294E1,1.978775E1,6.569458E1,8.749507E0,8.407449E1,0E0,1.1659126E1,1.7553153E0,3.693283E0,1.0601717E1,1.3264589E2,6.943872E1,4.3393517E-1,7.67889E-1,6.2527847E0,0E0,3.6647382E2,1.8043018E2,7.854851E1,2.890052E2,1.5244751E1,3.6875885E1,3.8846436E1,2.3010864E0,1.1301016E1,1.5655308E1,2.4348664E0,1.1974518E1,7.4492455E-1,8.436035E0,0E0,4.5728874E0,4.3886414E0,1.8968884E1,5.16754E-1,1.5492554E0,2.0149763E-1,0E0,0E0,0E0,0E0,0E0,0E0,0E0,0E0,0E0,0E0,0E0,0E0,0E0,0E0,0E0,0E0,0E0,0E0,0E0,0E0,0E0,0E0,0E0,0E0,0E0,0E0,0E0,0E0,0E0,0E0,0E0,0E0,0E0,0E0,0E0,0E0,0E0,0E0,0E0,0E0,0E0,0E0,0E0,0E0,0E0,0E0,0E0,0E0,0E0,0E0,0E0,0E0,0E0,0E0,0E0],"parents":[2147483647,0,0,1,1,2,2,3,3,4,4,5,5,6,6,7,7,8,8,9,9,10,10,11,11,12,12,13,13,14,14,15,15,16,16,17,17,18,18,19,19,20,20,21,21,22,22,23,23,24,24,25,25,26,26,27,27,29,29,30,30,31,31,32,32,33,33,34,34,35,35,36,36,37,37,39,39,40,40,41,41,42,42,43,43,44,44,45,45,46,46,47,47,48,48,49,49,50,50,51,51,52,52,54,54,55,55,56,56,57,57,58,58,59,59],"right_children":[2,4,6,8,10,12,14,16,18,20,22,24,26,28,30,32,34,36,38,40,42,44,46,48,50,52,54,56,-1,58,60,62,64,66,68,70,72,74,-1,76,78,80,82,84,86,88,90,92,94,96,98,100,102,-1,104,106,108,110,112,114,-1,-1,-1,-1,-1,-1,-1,-1,-1,-1,-1,-1,-1,-1,-1,-1,-1,-1,-1,-1,-1,-1,-1,-1,-1,-1,-1,-1,-1,-1,-1,-1,-1,-1,-1,-1,-1,-1,-1,-1,-1,-1,-1,-1,-1,-1,-1,-1,-1,-1,-1,-1,-1,-1,-1],"split_conditions":[3.6E1,-2E0,1.014E2,1.6499E2,1.007E2,7.47E1,4.3E1,9.099E1,1.6842E2,2.3E1,1.5978E2,4.8E1,2.1593E2,1.8523E2,1.9919E2,8.753E1,-4.6E1,-1.4E1,-1.4E1,1.1E1,7.86E1,9.524E1,2.3E1,6.17E1,7.2E1,3.166E1,9.2E1,7.885E1,7.019093E-2,3.815E1,1.065E2,8.68E1,-1.7E1,1.2441E2,1.4067E2,-2E1,9.13E1,1.7505E2,7.173689E-2,1.6499E2,1.9E1,6.07E1,9.74E1,5.18E1,1.051E2,1.3E1,1.028E2,7.689E1,3.9E1,7.15E1,1.8041E2,9.38E1,4.344E1,-5.965407E-2,4E1,5.696E1,1.063E2,3.5E1,1.7962E2,2.0711E2,4.4191465E-2,4.2546436E-2,7.029463E-2,-3.767577E-2,3.7160173E-2,2.0216724E-2,-4.1001953E-2,-3.6251564E-2,-5.477641E-2,-4.4975962E-2,-9.8706735E-3,9.707561E-3,5.033029E-2,9.947417E-3,6.756317E-2,3.9700004E-3,7.3071145E-2,5.450915E-2,2.0870915E-2,-2.6647756E-2,4.7817137E-2,-4.91872E-2,6.703938E-3,7.074122E-2,5.5879224E-2,1.10714575E-2,2.9958649E-2,6.99411E-2,4.381881E-2,6.2042333E-2,7.567978E-2,5.318105E-2,-4.585397E-2,3.8093235E-2,1.9878068E-3,4.1283518E-2,-1.9423706E-2,-6.8708576E-2,1.1517823E-3,1.1658111E-2,5.0373435E-2,-4.078763E-2,-7.333019E-2,6.199897E-2,5.846299E-4,6.825924E-2,2.5065465E-2,-5.892715E-2,2.6840338E-2,3.593449E-2,-3.0780407E-3,-7.846158E-2,-3.415151E-2,5.711274E-3,-1.670578E-2],"split_indices":[3,3,2,0,2,2,3,0,0,3,0,3,0,0,0,0,3,3,3,3,2,0,3,2,0,0,2,0,0,0,2,2,3,0,0,3,2,0,0,0,3,2,2,0,2,3,2,0,3,2,0,2,0,0,3,0,2,0,0,0,0,0,0,0,0,0,0,0,0,0,0,0,0,0,0,0,0,0,0,0,0,0,0,0,0,0,0,0,0,0,0,0,0,0,0,0,0,0,0,0,0,0,0,0,0,0,0,0,0,0,0,0,0,0,0],"split_type":[0,0,0,0,0,0,0,0,0,0,0,0,0,0,0,0,0,0,0,0,0,0,0,0,0,0,0,0,0,0,0,0,0,0,0,0,0,0,0,0,0,0,0,0,0,0,0,0,0,0,0,0,0,0,0,0,0,0,0,0,0,0,0,0,0,0,0,0,0,0,0,0,0,0,0,0,0,0,0,0,0,0,0,0,0,0,0,0,0,0,0,0,0,0,0,0,0,0,0,0,0,0,0,0,0,0,0,0,0,0,0,0,0,0,0],"sum_hessian":[1.2735258E4,1.0697094E4,2.0381636E3,2.96216E3,7.734934E3,1.8877294E3,1.5043423E2,2.833825E3,1.2833496E2,4.9280215E3,2.8069126E3,3.9975687E2,1.4879725E3,1.0441855E2,4.6015686E1,1.4178253E2,2.6920425E3,1.5093359E1,1.1324161E2,3.3995322E3,1.5284894E3,1.9308593E3,8.760533E2,1.6420595E2,2.3555092E2,1.4728812E3,1.5091252E1,8.0525955E1,2.3892591E1,4.125876E1,4.7569265E0,1.1567217E2,2.6110357E1,3.536492E2,2.3383933E3,3.983873E0,1.1109487E1,2.0678188E1,9.2563416E1,1.528475E3,1.8710571E3,3.7224557E2,1.1562438E3,8.855722E2,1.0452871E3,5.8938654E2,2.8666675E2,3.2476425E1,1.3172952E2,5.8317003E0,2.2971922E2,1.1444193E1,1.461437E3,1.4853923E0,1.360586E1,3.3392727E1,4.713323E1,2.7589173E0,3.849984E1,2.532843E0,2.2240834E0,2.0489088E1,9.518308E1,5.1638403E0,2.0946518E1,1.888936E2,1.6475558E2,1.5854662E3,7.5292706E2,1.375698E0,2.6081748E0,1.9362651E0,9.173222E0,7.6930285E0,1.298516E1,1.3044861E3,2.2398894E2,1.2921614E3,5.788959E2,3.8970253E1,3.3327533E2,8.370963E2,3.1914752E2,2.7221237E2,6.1335986E2,5.718065E2,4.734806E2,2.7099222E2,3.1839432E2,8.109736E1,2.0556938E2,2.342666E0,3.0133759E1,4.5021538E1,8.6707985E1,4.103469E0,1.7282318E0,2.2344658E2,6.272638E0,2.2363472E0,9.207846E0,2.4358465E1,1.4370786E3,9.280303E0,4.325557E0,2.3485144E1,9.907582E0,4.009037E1,7.0428586E0,1.7425098E0,1.0164074E0,3.4048706E1,4.4511347E0,1.0120618E0,1.5207812E0],"tree_param":{"num_deleted":"0","num_feature":"4","num_nodes":"115","size_leaf_vector":"1"}},{"base_weights":[-4.1610207E-3,2.1914826E-1,-1.1008744E0,-5.3979003E-1,5.347549E-1,-1.2013639E0,-2.0831862E-2,-6.2342244E-1,1.3372769E0,3.4542465E-1,8.9304024E-1,-6.5073496E-1,-1.3647932E0,3.0607614E-1,-1.2715695E0,9.4852936E-1,-7.3179877E-1,1.6890867E-1,1.368374E0,5.922854E-1,-2.948091E-1,1.1913359E0,7.6063114E-1,7.343154E-2,-1.2722789E0,-1.3840595E0,9.1444474E-1,-6.389638E-2,1.2523247E0,-8.428972E-2,-1.4196008E0,1.2993258E0,3.159446E-1,-2.0671827E-1,-8.078064E-1,-2.1677304E-2,4.4210598E-2,9.567097E-1,7.024338E-2,1.0224674E0,4.3793103E-1,9.471035E-1,-5.603388E-1,1.0591463E0,1.374469E0,4.0330538E-1,1.139891E0,-9.816605E-1,2.3441957E-1,3.3876652E-1,-1.3183255E0,-1.23288296E-1,-1.4197562E0,1.1371284E0,-9.875723E-2,9.305018E-1,-7.9430324E-1,5.2290064E-1,1.2976229E0,6.611823E-1,-5.8978386E-2,-7.862098E-2,8.201997E-2,2.8660337E-2,6.6625856E-2,-4.4409502E-2,2.9844029E-2,2.5730288E-2,-3.4732394E-2,-4.764734E-2,-2.9226152E-2,9.938578E-3,5.6326967E-2,6.302326E-2,2.6199562E-2,7.734684E-3,5.186787E-2,-3.1487327E-2,6.0495496E-2,-4.240467E-2,1.5277915E-2,6.537407E-2,3.5069328E-2,5.184887E-2,7.083591E-2,2.7227104E-2,8.343547E-3,5.1184725E-2,6.929596E-2,2.1768553E-2,-5.380639E-2,2.3474272E-2,-1.6627016E-2,3.6312617E-2,-1.0041051E-2,-1.910714E-2,-6.814857E-2,2.9616997E-2,-3.7753113E-2,-7.166404E-2,-3.596142E-2,1.1021746E-2,6.297778E-2,-9.347723E-3,2.4528177E-3,6.988383E-2,2.7081776E-2,-5.339217E-2,3.118346E-2,4.895271E-2,-1.4100394E-2,5.19403E-2,7.410296E-2,2.202787E-3,4.352148E-2,2.6043031E-2,-1.9589564E-2],"categories":[],"categories_nodes":[],"categories_segments":[],"categories_sizes":[],"default_left":[0,0,0,0,0,0,0,0,0,0,0,0,0,0,0,0,0,0,0,0,0,0,0,0,0,0,0,0,0,0,0,0,0,0,0,0,0,0,0,0,0,0,0,0,0,0,0,0,0,0,0,0,0,0,0,0,0,0,0,0,0,0,0,0,0,0,0,0,0,0,0,0,0,0,0,0,0,0,0,0,0,0,0,0,0,0,0,0,0,0,0,0,0,0,0,0,0,0,0,0,0,0,0,0,0,0,0,0,0,0,0,0,0,0,0,0,0],"id":11,"left_children":[1,3,5,7,9,11,13,15,17,19,21,23,25,27,29,31,33,35,37,39,41,43,45,47,49,51,53,55,57,59,61,63,65,67,69,-1,-1,71,-1,73,75,77,79,81,83,85,87,89,91,93,95,97,99,101,103,105,107,109,111,113,-1,-1,115,-1,-1,-1,-1,-1,-1,-1,-1,-1,-1,-1,-1,-1,-1,-1,-1,-1,-1,-1,-1,-1,-1,-1,-1,-1,-1,-1,-1,-1,-1,-1,-1,-1,-1,-1,-1,-1,-1,-1,-1,-1,-1,-1,-1,-1,-1,-1,-1,-1,-1,-1,-1,-1,-1],"loss_changes":[3.0769124E3,2.5005195E3,2.3065063E2,4.8219794E2,4.9982764E2,1.740918E2,7.4778625E1,5.0091638E2,4.532486E0,7.628326E2,9.9749756E1,2.0126524E2,6.706909E1,5.0857475E1,6.5403023E0,4.1710754E1,1.0948242E2,2.3397872E0,5.72464E-1,2.3082288E2,4.4356912E2,1.7467651E1,2.3910577E2,3.5454678E1,1.8292908E1,6.6718994E1,3.0821571E0,7.716537E1,6.7017365E-1,5.0779276E0,7.846138E0,2.1712036E0,2.3882784E1,1.2310331E2,7.720984E1,0E0,0E0,1.5167398E0,0E0,1.083631E2,4.353239E2,9.898596E1,2.7620422E2,3.9804504E1,3.1555786E0,3.03553E1,2.3081177E1,4.1692944E0,2.4242737E1,1.7098758E0,9.263306E0,1.9445152E1,1.2662598E1,9.4239426E-1,5.208568E-2,7.42173E0,2.4405495E1,1.7673681E0,2.6274872E-1,4.4886184E-1,0E0,0E0,1.047579E0,0E0,0E0,0E0,0E0,0E0,0E0,0E0,0E0,0E0,0E0,0E0,0E0,0E0,0E0,0E0,0E0,0E0,0E0,0E0,0E0,0E0,0E0,0E0,0E0,0E0,0E0,0E0,0E0,0E0,0E0,0E0,0E0,0E0,0E0,0E0,0E0,0E0,0E0,0E0,0E0,0E0,0E0,0E0,0E0,0E0,0E0,0E0,0E0,0E0,0E0,0E0,0E0,0E0,0E0],"parents":[2147483647,0,0,1,1,2,2,3,3,4,4,5,5,6,6,7,7,8,8,9,9,10,10,11,11,12,12,13,13,14,14,15,15,16,16,17,17,18,18,19,19,20,20,21,21,22,22,23,23,24,24,25,25,26,26,27,27,28,28,29,29,30,30,31,31,32,32,33,33,34,34,37,37,39,39,40,40,41,41,42,42,43,43,44,44,45,45,46,46,47,47,48,48,49,49,50,50,51,51,52,52,53,53,54,54,55,55,56,56,57,57,58,58,59,59,62,62],"right_children":[2,4,6,8,10,12,14,16,18,20,22,24,26,28,30,32,34,36,38,40,42,44,46,48,50,52,54,56,58,60,62,64,66,68,70,-1,-1,72,-1,74,76,78,80,82,84,86,88,90,92,94,96,98,100,102,104,106,108,110,112,114,-1,-1,116,-1,-1,-1,-1,-1,-1,-1,-1,-1,-1,-1,-1,-1,-1,-1,-1,-1,-1,-1,-1,-1,-1,-1,-1,-1,-1,-1,-1,-1,-1,-1,-1,-1,-1,-1,-1,-1,-1,-1,-1,-1,-1,-1,-1,-1,-1,-1,-1,-1,-1,-1,-1,-1,-1],"split_conditions":[3.5E1,-1E0,1.014E2,1.6661E2,1.011E2,7.57E1,4.4E1,9.4E1,-2.3E1,2.4E1,9.318E1,4.9E1,2.1972E2,1.8041E2,4.797E1,8.753E1,-4.6E1,1.7419E2,-1.5E1,9.642E1,7.51E1,2.1E1,1.5582E2,5.88E1,7.09E1,4.344E1,4E1,7.885E1,1.8523E2,1.043E2,1.9919E2,7.44E1,-2.1E1,1.204E2,9.35E1,-2.1677304E-2,4.4210598E-2,1.7003E2,7.024338E-2,1.8E1,1.6096E2,6.07E1,9.8E1,1.4E1,1.022E2,1.5E1,2.3E1,8.916E1,7.22E1,7.22E1,4.09E1,3.9E1,2.0711E2,9.36E1,9.87E1,4.588E1,1.063E2,1.8317E2,1.042E2,1.035E2,-5.8978386E-2,-7.862098E-2,1.054E2,2.8660337E-2,6.6625856E-2,-4.4409502E-2,2.9844029E-2,2.5730288E-2,-3.4732394E-2,-4.764734E-2,-2.9226152E-2,9.938578E-3,5.6326967E-2,6.302326E-2,2.6199562E-2,7.734684E-3,5.186787E-2,-3.1487327E-2,6.0495496E-2,-4.240467E-2,1.5277915E-2,6.537407E-2,3.5069328E-2,5.184887E-2,7.083591E-2,2.7227104E-2,8.343547E-3,5.1184725E-2,6.929596E-2,2.1768553E-2,-5.380639E-2,2.3474272E-2,-1.6627016E-2,3.6312617E-2,-1.0041051E-2,-1.910714E-2,-6.814857E-2,2.9616997E-2,-3.7753113E-2,-7.166404E-2,-3.596142E-2,1.1021746E-2,6.297778E-2,-9.347723E-3,2.4528177E-3,6.988383E-2,2.7081776E-2,-5.339217E-2,3.118346E-2,4.895271E-2,-1.4100394E-2,5.19403E-2,7.410296E-2,2.202787E-3,4.352148E-2,2.6043031E-2,-1.9589564E-2],"split_indices":[3,3,2,0,2,2,3,0,3,3,0,3,0,0,0,0,3,0,3,0,2,3,0,2,0,0,3,0,0,2,0,2,3,0,2,0,0,0,0,3,0,2,2,3,2,3,3,0,2,2,2,3,0,2,2,0,2,0,2,2,0,0,2,0,0,0,0,0,0,0,0,0,0,0,0,0,0,0,0,0,0,0,0,0,0,0,0,0,0,0,0,0,0,0,0,0,0,0,0,0,0,0,0,0,0,0,0,0,0,0,0,0,0,0,0,0,0],"split_type":[0,0,0,0,0,0,0,0,0,0,0,0,0,0,0,0,0,0,0,0,0,0,0,0,0,0,0,0,0,0,0,0,0,0,0,0,0,0,0,0,0,0,0,0,0,0,0,0,0,0,0,0,0,0,0,0,0,0,0,0,0,0,0,0,0,0,0,0,0,0,0,0,0,0,0,0,0,0,0,0,0,0,0,0,0,0,0,0,0,0,0,0,0,0,0,0,0,0,0,0,0,0,0,0,0,0,0,0,0,0,0,0,0,0,0,0,0],"sum_hessian":[1.2561647E4,1.0437248E4,2.124399E3,3.065335E3,7.371913E3,1.9434626E3,1.8093634E2,2.9352244E3,1.3011052E2,4.8244653E3,2.5474478E3,4.459479E2,1.4975148E3,1.4404283E2,3.6893505E1,1.8881361E2,2.746411E3,3.5399597E0,1.2657056E2,3.4819666E3,1.3424988E3,7.806885E2,1.7667592E3,2.0637749E2,2.3957043E2,1.4853518E3,1.2162893E1,1.0422464E2,3.981819E1,4.26396E0,3.2629543E1,1.20781105E2,6.803251E1,3.4775406E2,2.3986567E3,2.1353707E0,1.4045889E0,1.2522832E1,1.1404773E2,9.1797327E2,2.5639934E3,2.3602347E2,1.1064753E3,4.57348E2,3.2334048E2,9.1074725E2,8.560119E2,2.6645971E1,1.7973152E2,6.4804406E0,2.3309E2,4.1020035E1,1.4443318E3,9.871093E0,2.291801E0,4.402022E1,6.0204422E1,3.0616066E0,3.6756584E1,2.7729552E0,1.4910048E0,2.9572794E1,3.0567489E0,6.078247E0,1.1470286E2,1.246104E1,5.557147E1,1.4029549E2,2.0745857E2,1.4517266E3,9.469302E2,2.689627E0,9.833204E0,6.202878E2,2.9768546E2,1.7420896E3,8.2190375E2,3.351797E1,2.025055E2,8.3050336E2,2.7597195E2,2.6839194E2,1.8895604E2,3.8816162E1,2.8452432E2,5.693417E2,3.414056E2,5.8492084E2,2.710911E2,1.4398088E0,2.5206161E1,1.27175514E2,5.2556004E1,3.5704834E0,2.9099572E0,1.1045031E1,2.2204497E2,1.9262861E1,2.1757172E1,1.415949E3,2.8382872E1,1.4929487E0,8.378144E0,1.2695116E0,1.0222895E0,1.8818222E1,2.5201998E1,5.0675552E1,9.528868E0,1.8160627E0,1.245544E0,1.8053993E1,1.8702589E1,1.0086672E0,1.764288E0,1.5353856E0,1.5213633E0],"tree_param":{"num_deleted":"0","num_feature":"4","num_nodes":"117","size_leaf_vector":"1"}},{"base_weights":[-3.007597E-3,4.564893E-1,-8.505852E-1,9.040008E-1,-7.050287E-1,-2.753258E-1,-9.205112E-1,1.3235544E0,4.9018854E-1,-2.456908E-1,-1.2110307E0,2.0501108E-1,-7.5852066E-1,-4.4917113E-1,-1.0311841E0,1.3817861E0,4.183672E-1,3.8814813E-1,1.1735661E0,-3.3917114E-1,1.3969252E0,-1.2484711E0,-4.852908E-2,-4.3733233E-1,5.115927E-1,-3.4797326E-1,-8.764891E-1,4.9198428E-1,-6.1082387E-1,-9.251411E-1,-1.201224E0,1.4601173E0,1.1447526E0,9.0024145E-3,7.2176985E-2,1.2700485E0,3.1405023E-1,9.592803E-1,1.2725949E0,1.0589224E0,-4.466915E-1,7.152248E-2,3.3975953E-1,-2.511275E-2,-1.2787559E0,1.1125445E0,-9.616797E-1,-7.22982E-1,-7.475821E-2,8.5193664E-1,2.5231782E-2,1.0390482E0,-6.706042E-1,-1.1016948E0,-6.4091766E-1,1.1807457E0,-8.782753E-1,-8.2393724E-1,4.9135938E-1,-8.6580247E-1,-1.3581822E0,-1.2266549E0,-3.9584026E-1,7.424754E-2,6.0304053E-2,5.131479E-2,6.426626E-2,7.148662E-2,-3.4251984E-2,7.15284E-2,4.7363516E-2,5.5308193E-2,1.0595453E-2,5.165841E-2,1.4187043E-2,6.88933E-2,4.1098196E-2,6.8852894E-2,3.0996243E-2,2.9585544E-2,-3.1682134E-2,-1.9141257E-2,4.8159868E-2,4.0375497E-2,-4.765479E-2,2.5315046E-2,-6.459264E-2,7.5991094E-2,2.185476E-2,-1.3055771E-2,-5.9728157E-2,-5.5529963E-2,-1.990299E-2,3.0726513E-2,-2.1038452E-2,3.2958355E-2,7.57725E-2,-1.8422306E-2,7.005024E-2,-1.4439474E-2,6.7532E-2,-5.3763475E-2,8.589366E-3,-7.1853474E-2,-4.413003E-2,-3.9491903E-2,6.310476E-2,6.5044574E-2,1.4347297E-2,-2.1584412E-2,-6.993695E-2,-2.9837737E-2,-6.4883985E-2,6.8893895E-2,-5.361426E-2,4.670777E-2,-4.4651702E-2,-5.5343736E-2,-6.964471E-2,-6.2548794E-2,-5.252974E-2,5.876248E-2,-6.172917E-2],"categories":[],"categories_nodes":[],"categories_segments":[],"categories_sizes":[],"default_left":[0,0,0,0,0,0,0,0,0,0,0,0,0,0,0,0,0,0,0,0,0,0,0,0,0,0,0,0,0,0,0,0,0,0,0,0,0,0,0,0,0,0,0,0,0,0,0,0,0,0,0,0,0,0,0,0,0,0,0,0,0,0,0,0,0,0,0,0,0,0,0,0,0,0,0,0,0,0,0,0,0,0,0,0,0,0,0,0,0,0,0,0,0,0,0,0,0,0,0,0,0,0,0,0,0,0,0,0,0,0,0,0,0,0,0,0,0,0,0,0,0,0,0],"id":12,"left_children":[1,3,5,7,9,11,13,15,17,19,21,23,25,27,29,31,33,35,37,39,41,43,45,47,49,51,53,55,57,59,61,63,65,67,-1,69,71,73,75,77,79,-1,81,83,85,87,89,91,93,95,97,99,101,103,105,107,109,111,113,115,117,119,121,-1,-1,-1,-1,-1,-1,-1,-1,-1,-1,-1,-1,-1,-1,-1,-1,-1,-1,-1,-1,-1,-1,-1,-1,-1,-1,-1,-1,-1,-1,-1,-1,-1,-1,-1,-1,-1,-1,-1,-1,-1,-1,-1,-1,-1,-1,-1,-1,-1,-1,-1,-1,-1,-1,-1,-1,-1,-1,-1,-1],"loss_changes":[4.8716523E3,4.216863E3,1.7663452E2,1.01601855E3,5.241797E2,1.1110277E2,2.0404199E2,1.5265967E2,2.0523145E2,1.822892E2,4.6661743E1,4.7587025E1,1.1246689E1,1.1398793E2,5.6123047E1,4.9035156E1,7.433165E1,1.6740878E2,6.900696E0,1.6900226E2,1.7804871E0,3.8496704E1,3.7684856E1,8.049514E0,2.7003674E1,2.5262823E1,9.088287E0,1.04936455E2,1.5030339E2,4.9170288E1,2.4416626E1,1.1135742E1,1.0053406E1,1.2680332E2,0E0,8.94043E0,1.915356E2,5.9475403E0,1.1139526E1,1.0369263E1,2.0261082E2,0E0,1.8450584E0,2.0968708E1,2.437854E1,3.6456413E0,2.9294834E0,5.055273E0,8.747861E0,1.1282509E1,3.747816E1,4.8385677E0,1.5573967E1,5.564781E0,2.724614E1,7.53994E0,8.088928E0,5.6820465E1,1.456787E2,8.543237E1,5.0271606E-1,3.7303467E0,5.2437458E1,0E0,0E0,0E0,0E0,0E0,0E0,0E0,0E0,0E0,0E0,0E0,0E0,0E0,0E0,0E0,0E0,0E0,0E0,0E0,0E0,0E0,0E0,0E0,0E0,0E0,0E0,0E0,0E0,0E0,0E0,0E0,0E0,0E0,0E0,0E0,0E0,0E0,0E0,0E0,0E0,0E0,0E0,0E0,0E0,0E0,0E0,0E0,0E0,0E0,0E0,0E0,0E0,0E0,0E0,0E0,0E0,0E0,0E0,0E0,0E0],"parents":[2147483647,0,0,1,1,2,2,3,3,4,4,5,5,6,6,7,7,8,8,9,9,10,10,11,11,12,12,13,13,14,14,15,15,16,16,17,17,18,18,19,19,20,20,21,21,22,22,23,23,24,24,25,25,26,26,27,27,28,28,29,29,30,30,31,31,32,32,33,33,35,35,36,36,37,37,38,38,39,39,40,40,42,42,43,43,44,44,45,45,46,46,47,47,48,48,49,49,50,50,51,51,52,52,53,53,54,54,55,55,56,56,57,57,58,58,59,59,60,60,61,61,62,62],"right_children":[2,4,6,8,10,12,14,16,18,20,22,24,26,28,30,32,34,36,38,40,42,44,46,48,50,52,54,56,58,60,62,64,66,68,-1,70,72,74,76,78,80,-1,82,84,86,88,90,92,94,96,98,100,102,104,106,108,110,112,114,116,118,120,122,-1,-1,-1,-1,-1,-1,-1,-1,-1,-1,-1,-1,-1,-1,-1,-1,-1,-1,-1,-1,-1,-1,-1,-1,-1,-1,-1,-1,-1,-1,-1,-1,-1,-1,-1,-1,-1,-1,-1,-1,-1,-1,-1,-1,-1,-1,-1,-1,-1,-1,-1,-1,-1,-1,-1,-1,-1,-1,-1,-1],"split_conditions":[1.365E2,3E1,-3.9E1,1.6E1,3.9E1,1.2283E2,1.47E2,1.3017E2,1.1114E2,2.1593E2,2.0711E2,1.7464E2,1.7025E2,9.524E1,1.3757E2,1.3E1,1.5739E2,4.588E1,1.161E2,3.93E1,1.0861E2,4.109E1,9.458E1,1.6891E2,1.1674E2,1.3057E2,1.3057E2,4.9E1,1.5739E2,5.7E1,1.7419E2,1.241E2,9.746E1,9.59E1,7.2176985E-2,3.815E1,4.324E1,2.7E1,1.3017E2,3.4E1,5.696E1,7.152248E-2,1.1784E2,9.746E1,4.752E1,8.263E1,1.0354E2,1.1045E2,1.7084E2,1.8656E2,1.9473E2,1.5422E2,1.6668E2,1.8769E2,1.9473E2,3.8E1,7.885E1,7E0,5.1E1,8.059E1,6.4E1,1.5978E2,5.3E1,7.424754E-2,6.0304053E-2,5.131479E-2,6.426626E-2,7.148662E-2,-3.4251984E-2,7.15284E-2,4.7363516E-2,5.5308193E-2,1.0595453E-2,5.165841E-2,1.4187043E-2,6.88933E-2,4.1098196E-2,6.8852894E-2,3.0996243E-2,2.9585544E-2,-3.1682134E-2,-1.9141257E-2,4.8159868E-2,4.0375497E-2,-4.765479E-2,2.5315046E-2,-6.459264E-2,7.5991094E-2,2.185476E-2,-1.3055771E-2,-5.9728157E-2,-5.5529963E-2,-1.990299E-2,3.0726513E-2,-2.1038452E-2,3.2958355E-2,7.57725E-2,-1.8422306E-2,7.005024E-2,-1.4439474E-2,6.7532E-2,-5.3763475E-2,8.589366E-3,-7.1853474E-2,-4.413003E-2,-3.9491903E-2,6.310476E-2,6.5044574E-2,1.4347297E-2,-2.1584412E-2,-6.993695E-2,-2.9837737E-2,-6.4883985E-2,6.8893895E-2,-5.361426E-2,4.670777E-2,-4.4651702E-2,-5.5343736E-2,-6.964471E-2,-6.2548794E-2,-5.252974E-2,5.876248E-2,-6.172917E-2],"split_indices":[1,3,3,3,3,0,1,1,1,0,0,1,1,0,0,3,0,0,1,1,1,0,1,1,0,0,0,3,0,3,0,1,1,0,0,0,1,3,1,1,0,0,1,1,1,1,1,0,1,1,1,1,1,1,1,3,0,3,3,0,3,0,3,0,0,0,0,0,0,0,0,0,0,0,0,0,0,0,0,0,0,0,0,0,0,0,0,0,0,0,0,0,0,0,0,0,0,0,0,0,0,0,0,0,0,0,0,0,0,0,0,0,0,0,0,0,0,0,0,0,0,0,0],"split_type":[0,0,0,0,0,0,0,0,0,0,0,0,0,0,0,0,0,0,0,0,0,0,0,0,0,0,0,0,0,0,0,0,0,0,0,0,0,0,0,0,0,0,0,0,0,0,0,0,0,0,0,0,0,0,0,0,0,0,0,0,0,0,0,0,0,0,0,0,0,0,0,0,0,0,0,0,0,0,0,0,0,0,0,0,0,0,0,0,0,0,0,0,0,0,0,0,0,0,0,0,0,0,0,0,0,0,0,0,0,0,0,0,0,0,0,0,0,0,0,0,0,0,0],"sum_hessian":[1.2506763E4,8.110359E3,4.396404E3,5.854824E3,2.2555347E3,4.7702255E2,3.919381E3,2.9061526E3,2.9486719E3,1.1830616E3,1.0724729E3,2.3950743E2,2.375151E2,7.462534E2,3.1731277E3,2.7300022E3,1.7615047E2,2.5669487E3,3.81723E2,1.1201104E3,6.2951324E1,1.0389381E3,3.3534748E1,7.7243004E1,1.6226443E2,5.3896652E1,1.8361845E2,1.09088394E2,6.37165E2,1.958301E3,1.2148268E3,2.0480378E3,6.819643E2,1.2660444E2,4.954603E1,1.9770912E2,2.3692397E3,1.2402836E2,2.5769464E2,7.935851E1,1.0407518E3,6.0674152E1,2.2771726E0,2.5142265E1,1.01379584E3,1.4667113E1,1.8867634E1,4.264871E1,3.45943E1,9.502E1,6.724443E1,9.751872E0,4.414478E1,9.1994896E1,9.162356E1,7.268937E1,3.6399033E1,5.3413873E2,1.030263E2,1.7249365E3,2.333646E2,1.1771344E3,3.7692368E1,1.8612451E3,1.867928E2,3.7459955E2,3.0736475E2,4.120213E1,8.5402306E1,1.2975111E2,6.795799E1,2.694902E2,2.0997495E3,1.1132289E2,1.2705468E1,2.0722711E2,5.046752E1,4.4774345E1,3.4584164E1,1.5845633E2,8.822955E2,1.2334774E0,1.0436952E0,1.3320456E1,1.1821811E1,7.1096797E0,1.00668616E3,8.370089E0,6.2970243E0,5.236457E0,1.3631177E1,1.8345419E1,2.4303288E1,1.1302511E1,2.3291786E1,7.517342E1,1.9846573E1,5.285278E1,1.439165E1,1.867361E0,7.884511E0,2.9633223E1,1.4511557E1,3.4154434E1,5.784046E1,8.551641E1,6.1071415E0,6.3674675E1,9.014691E0,2.0574438E1,1.5824593E1,3.625419E2,1.7159682E2,6.582512E1,3.720118E1,2.5211313E1,1.6997251E3,3.231307E1,2.0105151E2,1.0288971E3,1.482373E2,1.2979202E1,2.4713167E1],"tree_param":{"num_deleted":"0","num_feature":"4","num_nodes":"123","size_leaf_vector":"1"}},{"base_weights":[-1.629352E-3,4.3106645E-1,-8.3934456E-1,8.2131433E-1,-8.1430525E-1,-3.0447847E-1,-9.133416E-1,1.2257028E0,4.0348208E-1,-1.0373003E0,2.4350472E-1,-1.5916294E-1,-6.921733E-1,2.1820305E-1,-9.4133306E-1,1.313558E0,3.672766E-1,1.8490659E-1,1.0060333E0,1.1055265E-1,-1.2113999E0,6.8384933E-1,-6.649843E-1,-1.2656091E-1,-1.089358E0,-1.5292704E-1,-9.4291997E-1,6.040035E-1,-1.4796631E-1,-5.8396727E-1,-1.0332898E0,1.3887976E0,9.0924436E-1,-7.87406E-1,4.567272E-1,1.1191927E0,-6.3227065E-2,4.5865414E-1,1.2239224E0,4.3300918E-1,-1.1464717E0,-1.3262508E0,-7.124708E-1,3.5542056E-1,1.2199372E0,-9.188293E-1,5.7167846E-1,-1.786884E-1,2.6378515E-1,-6.1379004E-2,6.8226284E-3,-4.3076882E-1,2.9346702E-1,-1.0621394E0,-4.649941E-1,1.2814502E0,3.932079E-1,4.2449158E-1,-4.5357683E-1,-5.050171E-1,-1.2913975E0,-9.85528E-1,-1.3444606E0,7.234723E-2,6.1029542E-2,7.371177E-2,2.7497992E-2,2.5107836E-2,-4.531782E-2,3.9346997E-2,2.7124456E-3,6.799901E-2,2.9741252E-2,2.2936279E-2,-1.4563486E-2,1.2688267E-2,5.6103945E-2,4.4649336E-2,6.585789E-2,-5.030035E-2,2.8974527E-2,4.6531517E-2,-6.3503765E-2,-3.525443E-2,-6.7720644E-2,-1.5985882E-2,-6.446107E-2,-1.3499889E-2,4.9611E-2,4.4412192E-2,6.9647156E-2,-3.4589004E-2,-6.6642605E-2,4.9542587E-2,-2.8179983E-2,6.010372E-3,-1.3309844E-2,-2.4921738E-2,3.6080055E-2,-3.331473E-2,-1.8205518E-3,-1.1551813E-2,2.4485145E-2,-1.1228622E-2,-5.635047E-2,1.0418142E-2,-3.5612848E-2,-1.311778E-2,8.3219446E-2,6.164862E-3,3.7856832E-2,4.897263E-3,5.757892E-2,-2.6491163E-2,2.2080688E-2,-6.415356E-3,-3.1010224E-2,-4.6612248E-2,-6.8076394E-2,-5.539589E-2,-4.0816586E-2,-2.8655395E-2,-6.745727E-2],"categories":[],"categories_nodes":[],"categories_segments":[],"categories_sizes":[],"default_left":[0,0,0,0,0,0,0,0,0,0,0,0,0,0,0,0,0,0,0,0,0,0,0,0,0,0,0,0,0,0,0,0,0,0,0,0,0,0,0,0,0,0,0,0,0,0,0,0,0,0,0,0,0,0,0,0,0,0,0,0,0,0,0,0,0,0,0,0,0,0,0,0,0,0,0,0,0,0,0,0,0,0,0,0,0,0,0,0,0,0,0,0,0,0,0,0,0,0,0,0,0,0,0,0,0,0,0,0,0,0,0,0,0,0,0,0,0,0,0,0,0,0,0],"id":13,"left_children":[1,3,5,7,9,11,13,15,17,19,21,23,25,27,29,31,33,35,37,39,41,43,45,47,49,51,53,55,57,59,61,63,65,67,69,71,73,75,77,79,81,83,85,87,89,91,93,95,97,-1,-1,99,101,103,105,107,109,111,113,115,117,119,121,-1,-1,-1,-1,-1,-1,-1,-1,-1,-1,-1,-1,-1,-1,-1,-1,-1,-1,-1,-1,-1,-1,-1,-1,-1,-1,-1,-1,-1,-1,-1,-1,-1,-1,-1,-1,-1,-1,-1,-1,-1,-1,-1,-1,-1,-1,-1,-1,-1,-1,-1,-1,-1,-1,-1,-1,-1,-1,-1,-1],"loss_changes":[4.453373E3,3.9379985E3,1.6534009E2,1.0418584E3,4.5632764E2,2.8625683E1,1.1662134E2,2.3590869E2,3.9960504E2,3.1928284E2,1.3544475E2,1.115261E1,1.8618149E1,1.27383795E1,1.17271484E2,8.522363E1,3.0560516E1,5.167558E2,9.578418E1,8.612022E1,7.8520874E1,3.9668648E1,3.5265903E1,7.389124E0,2.2812529E0,5.7369695E0,4.891884E0,5.7505245E0,8.369915E0,4.0476547E1,4.1055176E1,2.165918E1,9.032379E1,3.7362127E0,3.610809E1,5.8251038E1,2.0985808E2,3.119629E1,1.6633545E1,3.6172974E1,1.2324318E1,1.8744385E1,5.885814E1,5.708052E1,3.7045898E0,7.7453613E0,9.820881E0,8.373461E0,1.5334232E1,0E0,0E0,2.6031218E0,1.9605742E0,3.8149948E0,3.5865917E0,6.31966E0,3.3295321E0,3.8723958E0,2.3469205E0,2.8737274E1,5.766907E-1,5.036548E1,5.880127E-1,0E0,0E0,0E0,0E0,0E0,0E0,0E0,0E0,0E0,0E0,0E0,0E0,0E0,0E0,0E0,0E0,0E0,0E0,0E0,0E0,0E0,0E0,0E0,0E0,0E0,0E0,0E0,0E0,0E0,0E0,0E0,0E0,0E0,0E0,0E0,0E0,0E0,0E0,0E0,0E0,0E0,0E0,0E0,0E0,0E0,0E0,0E0,0E0,0E0,0E0,0E0,0E0,0E0,0E0,0E0,0E0,0E0,0E0,0E0,0E0],"parents":[2147483647,0,0,1,1,2,2,3,3,4,4,5,5,6,6,7,7,8,8,9,9,10,10,11,11,12,12,13,13,14,14,15,15,16,16,17,17,18,18,19,19,20,20,21,21,22,22,23,23,24,24,25,25,26,26,27,27,28,28,29,29,30,30,31,31,32,32,33,33,34,34,35,35,36,36,37,37,38,38,39,39,40,40,41,41,42,42,43,43,44,44,45,45,46,46,47,47,48,48,51,51,52,52,53,53,54,54,55,55,56,56,57,57,58,58,59,59,60,60,61,61,62,62],"right_children":[2,4,6,8,10,12,14,16,18,20,22,24,26,28,30,32,34,36,38,40,42,44,46,48,50,52,54,56,58,60,62,64,66,68,70,72,74,76,78,80,82,84,86,88,90,92,94,96,98,-1,-1,100,102,104,106,108,110,112,114,116,118,120,122,-1,-1,-1,-1,-1,-1,-1,-1,-1,-1,-1,-1,-1,-1,-1,-1,-1,-1,-1,-1,-1,-1,-1,-1,-1,-1,-1,-1,-1,-1,-1,-1,-1,-1,-1,-1,-1,-1,-1,-1,-1,-1,-1,-1,-1,-1,-1,-1,-1,-1,-1,-1,-1,-1,-1,-1,-1,-1,-1,-1],"split_conditions":[1.3927E2,3.2E1,-3.7E1,1.7E1,1.005E2,7.29E1,4.09E1,1.2927E2,1.028E2,7.38E1,3.9E1,2.0095E2,-5E1,-7E0,1.4814E2,1.5E1,-1.7E1,8.01E1,2.1E1,4.7E1,9.67E1,1.048E2,1.065E2,1.9473E2,-4.9E1,8.07E1,1.7464E2,1.8141E2,1.8209E2,5.7E1,5.8E1,1.042E2,9.39E1,-3.8E1,8E0,2.7E1,2.1E1,1.086E2,1.043E2,6.17E1,1.1317E2,7.57E1,4.1E1,5.524E1,1.065E2,4.6E1,4.4E1,1.7246E2,-7.2E1,-6.1379004E-2,6.8226284E-3,1.8209E2,1.6521E2,-4.8E1,7.59E1,1.684E2,-2E1,3.7E1,7.8E1,1.4226E2,7.72E1,-4E0,4.88E1,7.234723E-2,6.1029542E-2,7.371177E-2,2.7497992E-2,2.5107836E-2,-4.531782E-2,3.9346997E-2,2.7124456E-3,6.799901E-2,2.9741252E-2,2.2936279E-2,-1.4563486E-2,1.2688267E-2,5.6103945E-2,4.4649336E-2,6.585789E-2,-5.030035E-2,2.8974527E-2,4.6531517E-2,-6.3503765E-2,-3.525443E-2,-6.7720644E-2,-1.5985882E-2,-6.446107E-2,-1.3499889E-2,4.9611E-2,4.4412192E-2,6.9647156E-2,-3.4589004E-2,-6.6642605E-2,4.9542587E-2,-2.8179983E-2,6.010372E-3,-1.3309844E-2,-2.4921738E-2,3.6080055E-2,-3.331473E-2,-1.8205518E-3,-1.1551813E-2,2.4485145E-2,-1.1228622E-2,-5.635047E-2,1.0418142E-2,-3.5612848E-2,-1.311778E-2,8.3219446E-2,6.164862E-3,3.7856832E-2,4.897263E-3,5.757892E-2,-2.6491163E-2,2.2080688E-2,-6.415356E-3,-3.1010224E-2,-4.6612248E-2,-6.8076394E-2,-5.539589E-2,-4.0816586E-2,-2.8655395E-2,-6.745727E-2],"split_indices":[1,3,3,3,2,2,2,1,2,2,3,1,3,3,1,3,3,2,3,3,2,2,2,1,3,2,1,1,1,3,3,2,2,3,3,3,3,2,2,2,1,2,3,1,2,3,3,1,3,0,0,1,1,3,2,1,3,3,3,1,2,3,